{"dense_weights": ["4912346624", "-94659624960", "-35004870656", "-48944742400", "60564877312", "133373231104", "-85157167104", "97007091712", "104321900544", "231984201728", "107127996416", "74508517376", "-13800680448", "200606646272", "204842778624", "-191811338240", "-32615438336", "63732027392", "139280728064", "71143030784", "179803406336", "-150628483072", "217544343552", "209810767872", "-16996860928", "-162324135936", "79095185408", "-252896182272", "155089174528", "231305265152", "169935814656", "161716076544", "-5339890688", "-91634720768", "88619384832", "-205126942720", "-14737666048", "115055411200", "-208426205184", "-161015562240", "-95890817024", "-210941902848", "-175777398784", "-147117228032", "75686010880", "-99090219008", "226614689792", "-184108580864", "-38051516416", "226640068608", "11123180544", "185201082368", "-53293137920", "-47362117632", "-216394612736", "73759612928", "-75124891648", "181966569472", "-14365464576", "193366147072", "-193775665152", "-198820855808", "-50680623104", "254068277248", "114647539712", "202523295744", "108638527488", "-8699729920", "-234997547008", "-94112800768", "211260473344", "-17732009984", "-8987411456", "-191214174208", "-184908333056", "8096694784", "-169414885376", "-116893097984", "193900675072", "-108093890560", "3402531072", "-155074674688", "-18519699456", "-150946496512", "-23124740096", "101807652864", "-32419502080", "215854792704", "8936643584", "-212680163328", "-158723981312", "-9868442624", "-241554128896", "55370092544", "67505655808", "172591333376", "99619807232", "-13066574848", "-38748176384", "-108703432704", "-94468505600", "146039455744", "68067340288", "-54381907968", "177263640576", "108041641984", "41822461952", "67739635712", "184255987712", "249814056960", "239855435776", "111294775296", "159821561856", "-116611194880", "-227237003264", "54932148224", "188400353280", "225875525632", "1575499776", "-169183690752", "170079551488", "-224143294464", "-234927046656", "-193145733120", "-135294140416", "204352831488", "-203365859328", "99802791936", "-50071449600", "227687563264", "72114470912", "2715468288", "223106891776", "-184786862080", "-212755922944", "-161077428224", "47626493952", "106027630592", "-8861556736", "-26342287360", "94798979072", "212783546368", "128580091904", "168495300608", "-202563551232", "130235850752", "-239341928448", "-99009978368", "-155176648704", "182810902528", "-40445521920", "-20256727040", "255313969152", "221821485056", "-169386688512", "-252915384320", "-207363899392", "-50780475392", "-82486509568", "-104080064512", "64997494784", "-163573235712", "154866581504", "-243854475264", "-74485268480", "128366264320", "-105192095744", "76962742272", "103118184448", "-53880692736", "217660637184", "217261162496", "-22879123456", "207540535296", "234040229888", "-166550700032", "122533085184", "-32976924672", "154587201536", "-181435400192", "90259791872", "-218715373568", "-14273777664", "105935216640", "-83484975104", "-6623178752", "-222764335104", "-35520761856", "239717777408", "233987801088", "-82686033920", "-80453263360", "92097282048", "-222768955392", "99759783936", "26058911744", "191804293120", "-244554661888", "-168675098624", "252615901184", "3675550208", "-157977559040", "229454184448", "114891825152", "-161131118592", "110378000384", "-247185408000", "-176837984256", "245669986304", "-176394305536", "140416237568", "-122693640192", "112283262976", "221563453440", "-67250667520", "-64614756352", "125218930688", "88701247488", "-237264715776", "-210358009856", "-215329996800", "157355606016", "-176406413312", "14951675904", "-228768907264", "67847667712", "-42418180096", "108641624064", "123512446976", "51901280256", "48047869952", "-62359465984", "36172570624", "106032521216", "-122370154496", "-107832270848", "93310803968", "-20919113728", "-119067172864", "-138602348544", "-187051212800", "-176957194240", "-120114978816", "118829604864", "52962779136", "-23661449216", "102907445248", "-183019307008", "10113566720", "42018025472", "247070343168", "-2657651968", "94622965760", "-75482710016", "-99705430016", "-7677674496", "193401454592", "227958915072", "-26080354304", "242898075648", "-42231500800", "57015685120", "-229929222144", "222698389504", "48981577728", "67518562304", "214974496768", "-228877582336", "-93103243264", "-233199321088", "84195639296", "54456205312", "4920720896", "-150725476352", "158401167360", "161578565632", "-159464177664", "-86529015808", "-241556439040", "164619796480", "-111293734912", "225087111168", "246587670528", "-1797556864", "-53223178240", "-243222528000", "-190035755008", "-147641024512", "148817002496", "48257617920", "62344790016", "180418166784", "-67692756992", "-39634509824", "143347105792", "133390098432", "-205247184896", "218777059328", "135740186624", "129870053376", "209888690176", "-23154139136", "246471376896", "-141445644288", "-8436203008", "113044709376", "-158385930240", "43544588288", "-80353591296", "-193584660480", "71096147968", "-143429615616", "251446755328", "-240814227456", "127071830016", "115191308288", "-108859596800", "182638592000", "98582806528", "-132369817600", "-110955503616", "-202890084352", "-7091701248", "-244267106304", "-27016372224", "248026103808", "-222583865344", "211850575872", "-103882489856", "-141279657984", "234598662144", "254466686976", "-52655292416", "104627372032", "-146255855616", "-203356241920", "99507363840", "-10219945984", "-241019289600", "-83707887616", "147723468800", "164980326400", "199731232768", "126010327040", "4261195520", "-70816251904", "-149766520832", "190750277632", "35910369280", "156297084928", "-68365201408", "212388757504", "-91275182080", "-31951828992", "98169561088", "28282136576", "-50991071232", "-36380483584", "48282353664", "-90601775104", "-19974336512", "70512648192", "-158302158848", "-212933689344", "186657161216", "-143897952256", "-102068854784", "185188646912", "-147287998464", "113112539136", "-76709281792", "39303778304", "240619814912", "-92083273728", "134347407360", "-48749359104", "-118842515456", "-52050677760", "112004816896", "-175810887680", "4549205504", "-68244025344", "191603245056", "-70178267136", "-195032547328", "192763183104", "-180258226176", "198359007232", "131398049792", "143041347584", "249474678784", "-162543812608", "19922046976", "-6114229760", "195314941952", "-192753549312", "-99715825664", "-83949969408", "-70525509632", "-108085485568", "221674029056", "56830763008", "127089229824", "126822621184", "-175170781184", "35683454976", "-75892727808", "-157786013696", "253833740288", "-152241192960", "254987386880", "103956398080", "-202333585408", "253658972160", "206915862528", "-195213131776", "134229155840", "-219432189952", "207674376192", "157007937536", "33386260480", "97265745920", "-2804547584", "-43924570112", "61940727808", "-235638325248", "206002798592", "-202292838400", "-99788234752", "-102641549312", "113626718208", "-33769785344", "8023947264", "-229227266048", "200101969920", "167470923776", "253975904256", "67081330688", "246926032896", "225803436032", "166243221504", "34968940544", "-196174970880", "-82496299008", "-138007855104", "-234988716032", "-244778909696", "-134394839040", "-171349114880", "-23068352512", "-159488229376", "88996380672", "-89744195584", "152586043392", "241694441472", "80066920448", "126191050752", "91501977600", "116998135808", "133203476480", "-91036139520", "-19156322304", "-137370673152", "-97081630720", "-158368940032", "-238578958336", "51087884288", "-95819931648", "-157567614976", "-164190437376", "242082807808", "-86309093376", "152109318144", "-95801737216", "-141857095680", "-78077706240", "-211012485120", "34379632640", "7839709696", "80857423872", "-130164367360", "-244407205888", "-73267412992", "252583591936", "173535608832", "23039012864", "-206030979072", "231394263040", "227620716544", "226581004288", "34313201664", "60415000576", "26845335552", "-17429768192", "101082505216", "95025299456", "-161011433472", "-50337583104", "70004940800", "-40009199616", "-127089844224", "-232795029504", "-125721542656", "155513290752", "58465570816", "-237563199488", "-126745100288", "105136513024", "-185351208960", "210056986624", "-187491631104", "-52923621376", "-137019662336", "-29363185664", "111133220864", "-153826689024", "187645345792", "-132359028736", "42191564800", "-191195840512", "130046484480", "221913759744", "105027018752", "-18193960960", "-9393215488", "-245515223040", "197854167040", "-160967475200", "-220084338688", "27006267392", "61393858560", "248429871104", "-225147420672", "34450501632", "-195865477120", "98465415168", "105719980032", "230797049856", "9846329344", "-198840893440", "-23060858880", "-118734553088", "-125787783168", "-61928747008", "-211967852544", "-154079969280", "121682821120", "-109377265664", "184433524736", "85792776192", "-216887853056", "-19406393344", "123651383296", "58629779456", "-19743279104", "-81952038912", "-213571551232", "37675290624", "-101648195584", "-226701557760", "-226800140288", "148376469504", "-120707227648", "150499819520", "-193524563968", "152620138496", "203617927168", "-82456363008", "94667972608", "-229010128896", "173063880704", "139928109056", "-183530766336", "-58360860672", "-210729304064", "207962177536", "71096213504", "-51593007104", "-40633962496", "102334382080", "74743300096", "105777201152", "78176526336", "-210159206400", "-65314963456", "59202789376", "-216892424192", "-90488168448", "-213979299840", "248148951040", "208380674048", "35092860928", "254230822912", "-132800757760", "-201143369728", "73566494720", "65156100096", "211442171904", "91300397056", "96597762048", "-177409654784", "-87745593344", "231884783616", "-242704203776", "131945553920", "233300951040", "-253638115328", "43918610432", "-47321870336", "-120431583232", "255109693440", "-35195633664", "-188154363904", "125467959296", "-185950453760", "82058969088", "110033747968", "-217787465728", "-64711020544", "-171953782784", "123304280064", "-252745859072", "115583057920", "-238546124800", "-231973371904", "-174376583168", "99660251136", "-122895671296", "181719384064", "253075390464", "-219576729600", "211261325312", "116902977536", "29246687232", "119685742592", "240755949568", "249138200576", "-65921380352", "-238064287744", "-102568984576", "132799152", "-217568575488", "98550587392", "83221585920", "-231148175360", "18520741888", "192054444032", "168412741632", "-117047574528", "45547278336", "-153934987264", "80148037632", "-56066826240", "246702407680", "209451220992", "-85475663872", "-81534353408", "-152166301696", "-204456394752", "-180090486784", "113384038400", "46158819328", "31991033856", "-23225321472", "-93248217088", "187265187840", "-216981504000", "188568715264", "72507973632", "153380814848", "-27282251776", "135775387648", "-113485398016", "91201216512", "-238294007808", "49079894016", "133084979200", "-62982512640", "154701922304", "-182101082112", "165266309120", "54193229824", "-226360164352", "-129201635328", "-145713414144", "-250534658048", "197285888000", "-6591275520", "208135667712", "218411417600", "125122846720", "-90169966592", "-64011247616", "20724416512", "-138394058752", "60454756352", "4866599936", "-223182733312", "-195289546752", "148400570368", "198228590592", "-254078812160", "-88164909056", "209997856768", "-127780364288", "-178773016576", "44783980544", "-57226223616", "-166134300672", "-161675460608", "77820895232", "66613612544", "-243678150656", "-59347034112", "-101886320640", "-130474893312", "-141750059008", "227568484352", "-29871151104", "-207497199616", "10452776960", "-189440409600", "-79579414528", "-54135083008", "-127881617408", "-118628737024", "-111235514368", "-5644500480", "242681987072", "41360019456", "106432225280", "-105054240768", "-245447458816", "47083376640", "-68014247936", "-43883962368", "72419377152", "-186937360384", "-7567286272", "-70589693952", "-7926642688", "138133340160", "-122404265984", "47027589120", "214957621248", "105298903040", "-195962765312", "27721494528", "-188647292928", "-210618417152", "7166355968", "-33654585344", "-32184182784", "181161902080", "-135906156544", "204166316032", "-66612944896", "-204727222272", "219480031232", "192867958784", "-76308160512", "170580000768", "175023144960", "-14415577088", "-186354614272", "157373186048", "-102347481088", "253930717184", "45470801920", "217058148352", "210233065472", "-28658225152", "-203898077184", "-187733524480", "141456965632", "177936023552", "89779617792", "-30450434048", "-42573316096", "10027796480", "129546911744", "140600360960", "-214926819328", "184707694592", "19291191296", "-23275122688", "-166166200320", "-204901957632", "-145841586176", "141078806528", "-25790228480", "-96807526400", "-164574265344", "-6671533056", "168246837248", "111196487680", "-116278214656", "-33851742208", "-3571361280", "-125552582656", "93019455488", "-9324058624", "-152631656448", "-252198748160", "-170200317952", "-122105061376", "-112501415936", "42444230656", "-202921197568", "67400634368", "67070246912", "-224996556800", "186244366336", "164359454720", "130109521920", "163205775360", "189717315584", "-128428072960", "-196693606400", "-210624086016", "156662169600", "149496905728", "-182736617472", "240311238656", "-131287187456", "-196355063808", "90758381568", "117589295104", "142767489024", "168801878016", "86552887296", "-156055175168", "123690131456", "-26671872000", "-205972832256", "234953818112", "-56029990912", "28675407872", "137868673024", "-153434341376", "-231283392512", "196096770048", "3767907584", "89726713856", "-65737871360", "17878263808", "4777699840", "215370809344", "-189425074176", "81047027712", "-136039317504", "39078686720", "143548104704", "-23015419904", "-250188316672", "22714613760", "-230167117824", "226447147008", "-234590814208", "-177488199680", "-236504367104", "-203668062208", "-101453160448", "51697053696", "-145755308032", "-234753081344", "-121977348096", "207955427328", "140187107328", "203465392128", "110713241600", "52650622976", "21387415552", "-124083142656", "-121909182464", "201477996544", "3190088704", "-213095596032", "160516227072", "221229383680", "17983008768", "-150072279040", "183094214656", "-67857219584", "200643411968", "20592719872", "26125821952", "128860413952", "157724721152", "-182373253120", "188021800960", "34588205056", "-218528989184", "77907361792", "-233579380736", "210079039488", "-210390466560", "-202944462848", "-14073387008", "209706631168", "-77700268032", "-174285619200", "-134938804224", "-158007951360", "207762358272", "-179283853312", "125842391040", "-246740680704", "220448948224", "-153829179392", "-53277609984", "20148723712", "-140352733184", "119288864768", "-36047921152", "207371649024", "135633526784", "66747011072", "-174690697216", "-175012921344", "105254445056", "-251283374080", "89446572032", "170306617344", "196971593728", "-40361672704", "157069033472", "174202208256", "119856447488", "123805138944", "119502872576", "212261257216", "-186497957888", "11467874304", "-51330150400", "121721593856", "-59081568256", "-199580827648", "-209396236288", "98326265856", "-132898537472", "-183237050368", "-3264009984", "-2976506880", "88229683200", "-30054598656", "53694636032", "-130282684416", "-174810759168", "-219727364096", "62448173056", "-176784506880", "-14733463552", "-186843660288", "-218440335360", "-72372314112", "-44401807360", "101409882112", "196615421952", "197669650432", "255169724416", "-107476803584", "-98076876800", "83459973120", "48101572608", "-248598331392", "220507799552", "198324682752", "-216895832064", "128035962880", "29958844416", "-21327302656", "-14759406592", "-40352059392", "-244974239744", "14027714560", "-40105775104", "184868306944", "247609458688", "-29618724864", "-143020589056", "-208819159040", "139110989824", "-237955104768", "-194822733824", "-6541475840", "31885772800", "-172092850176", "-113062109184", "180593049600", "55236755456", "166446202880", "-134867738624", "-156064448512", "200457486336", "-239015084032", "-91069685760", "-190371430400", "22848307200", "202211262464", "141571375104", "77900349440", "102486548480", "-119757635584", "-87749910528", "-88221851648", "148153450496", "252707864576", "118798909440", "57753382912", "-116355227648", "-74739965952", "-155407777792", "-181614903296", "159737380864", "33979772928", "145236312064", "-87600734208", "-135047856128", "253627088896", "-28421744640", "-218048905216", "73216466944", "-232027242496", "-60876144640", "-192278282240", "-235214716928", "-77238198272", "29386670080", "-212343160832", "13271689216", "159791857664", "155886649344", "112739295232", "-33072754688", "-49239859200", "-77912580096", "-205819822080", "45021503488", "-42416660480", "-226794717184", "196312580096", "-106153680896", "-191351586816", "209922670592", "154836975616", "-67258462208", "-101089017856", "144781803520", "-73834209280", "-8788123648", "-7578075136", "-134242803712", "-235049910272", "-140591808512", "-25126754304", "170929913856", "-197203509248", "-62829867008", "178423349248", "-71952031744", "-48816992256", "143072985088", "-12427687936", "60449509376", "-43971641344", "224025100288", "-158789959680", "-144513449984", "29914081280", "-42130558976", "87462395904", "-28891056128", "-57326944256", "-192806600704", "73439059968", "-161243709440", "-237314342912", "8051961856", "-14896884736", "-20588144640", "-151250862080", "-127752110080", "-147362529280", "-108751650816", "119035805696", "167059308544", "-203954569216", "-135142031360", "3495991296", "219432288256", "-24987131904", "-128597032960", "24958044160", "-161563721728", "-254949113856", "-140162383872", "98307874816", "26401847296", "24972349440", "-33272832000", "204497666048", "-188224880640", "-173874085888", "106304438272", "-52394508288", "-35201474560", "211451772928", "166142459904", "86558965760", "231418314752", "-224759955456", "194565980160", "-97980874752", "246863872000", "-127367618560", "-149367521280", "-112229179392", "150608150528", "-211117326336", "127600132096", "56843726848", "-111672623104", "110389919744", "231252901888", "-239456026624", "60449034240", "-5575940096", "22719592448", "-154192412672", "83976388608", "-87239073792", "85266530304", "34576592896", "-29102340096", "-170343759872", "140232032256", "-119744061440", "227143974912", "-37780807680", "205119586304", "-182146252800", "1350045184", "-244602290176", "113330216960", "-96594780160", "-226549596160", "98369806336", "-229512331264", "156316286976", "39319425024", "-182418309120", "45327843328", "130662735872", "66663174144", "207993421824", "-77651615744", "-24756983808", "-88846786560", "207583166464", "193643954176", "-42831777792", "-79329951744", "4267305216", "-237476855808", "73136627712", "-173582073856", "155851276288", "-83235037184", "-145461821440", "200246214656", "31974047744", "202632151040", "-184425119744", "39164035072", "220575383552", "198091538432", "-214111059968", "-238616756224", "111576858624", "-215955980288", "177404854272", "-103682416640", "149107785728", "58346541056", "222341365760", "251180433408", "-66348134400", "-30455365632", "46373543936", "-67604348928", "-4117637888", "-206412611584", "88556822528", "56043384832", "14130562048", "-28710961152", "74506043392", "-197491212288", "124337643520", "122398695424", "-255013322752", "-184561139712", "50790191104", "-244244512768", "74657406976", "-64581742592", "-192606797824", "252298231808", "-91024384000", "-30378639360", "-34878267392", "43079512064", "-127886008320", "172752437248", "-98456018944", "235227873280", "73915080704", "199863517184", "28664879104", "-167977517056", "-124682002432", "-41389625344", "157985128448", "229343985664", "-150239297536", "29609224192", "157127770112", "53432254464", "-94604034048", "-13059891200", "-166361006080", "210987958272", "65376878592", "-137873227776", "-197460279296", "153701236736", "62898544640", "99371786240", "222912970752", "23214100480", "-146408194048", "175817129984", "-218403848192", "25097766912", "36003766272", "29730080768", "232081522688", "-205231964160", "133578416128", "-169191292928", "-55269941248", "221810540544", "-135763566592", "-15377953792", "-24698525696", "161815560192", "161588494336", "240648355840", "-232240234496", "115023282176", "2955019520", "-187364425728", "63337414656", "251310669824", "-119495450624", "232808677376", "254784192512", "-136306851840", "-194709651456", "158958075904", "86505619456", "217477857280", "-28226734080", "-171767775232", "223576014848", "67327139840", "-140951666688", "-213409349632", "-194102919168", "-118030163968", "-228816584704", "152253005824", "134094774272", "4442095616", "181418901504", "65128771584", "162416754688", "51659673600", "-108488556544", "-198085165056", "-149540388864", "-250822148096", "246359736320", "229024317440", "98638323712", "-28189345792", "-208737583104", "113849188352", "-59566706688", "229320523776", "34687848448", "56222261248", "-96457539584", "-230456918016", "-188960768000", "-48948826112", "233644032000", "226243526656", "-126810742784", "86228844544", "-79189983232", "182934732800", "-217696256000", "229061967872", "61088083968", "-110979301376", "-84943577088", "198296076288", "9317487616", "205141655552", "-140279349248", "91453644800", "12674570240", "-88682381312", "-21440118784", "-125098000384", "-121492791296", "130613657600", "-97552105472", "-173029638144", "39712874496", "-188757032960", "194763603968", "134496690176", "95049588736", "-129705041920", "-22989019136", "-55945052160", "-65840349184", "14650672128", "-211118555136", "182959652864", "-44921651200", "-147407093760", "-24610250752", "76348039168", "-148075085824", "183126245376", "46303064064", "153691947008", "-115734192128", "-133391425536", "14867037184", "123967528960", "63100932096", "36269903872", "97345527808", "136513888256", "-89425559552", "123196989440", "-191127093248", "-139438080000", "-152889819136", "115184009216", "-17860292608", "-191415451648", "-92285526016", "-123385683968", "-190325522432", "-140716523520", "-24871632896", "-183836590080", "150817832960", "141690011648", "-166131499008", "39156109312", "-15750094848", "14757155840", "-148945764352", "142220591104", "-201434218496", "-199822065664", "6232529920", "163866640384", "99925098496", "7392048640", "22492616704", "1018017536", "-162053013504", "33437519872", "-134553444352", "-106425892864", "-219065155584", "-99560751104", "-51221950464", "-202417061888", "-249385353216", "20172716032", "186872446976", "42994487296", "120931516416", "214453256192", "134670835712", "-40072945664", "249283575808", "250807140352", "122375528448", "252874440704", "135197310976", "-121626615808", "19437621248", "-227015573504", "60384489472", "29870477312", "-65166286848", "79151988736", "45282426880", "-172042780672", "-157096706048", "111697764352", "121872113664", "234680156160", "137640656896", "243877855232", "-112100048896", "242152194048", "-101886017536", "221119971328", "-176987193344", "160356679680", "-106434158592", "200597536768", "-90044424192", "187182612480", "-20114436096", "61438291968", "184471322624", "-149327200256", "-119401988096", "221314203648", "162757001216", "-114298683392", "50433466368", "-80791568384", "-145576361984", "-85338923008", "-97557463040", "55436812288", "-119572414464", "28162891776", "246942318592", "-126217338880", "87224827904", "-238641922048", "248737726464", "-205808173056", "-182138667008", "-205039058944", "133419540480", "164275109888", "-241889776", "118751551488", "156212543488", "155960295424", "41268744192", "148706836480", "233751216128", "-63583461376", "-13381108736", "-168220524544", "-61699944448", "124863193088", "-77050609664", "167611449344", "189499457536", "-56526405632", "-17104411648", "62162071552", "163867803648", "-204298010624", "-78794883072", "-76753264640", "179344801792", "-22895007744", "38819164160", "-236946735104", "-14625960960", "98960596992", "-103640645632", "207077261312", "187890384896", "33445416960", "22473641984", "225008386048", "-193745764352", "9157895168", "215580147712", "236188270592", "-194140930048", "-93501505536", "103244333056", "-245324644352", "-183652155392", "179306512384", "208817963008", "30509502464", "-209333714944", "-42539225088", "190871126016", "-111145287680", "166946947072", "-160423870464", "-97119748096", "-92035112960", "45732290560", "-189672030208", "64478605312", "-156840443904", "-142261567488", "132100251648", "-103065444352", "-145625382912", "-168317190144", "242108366848", "-113136279552", "234291200000", "140582141952", "-5208551936", "-11973724160", "96889348096", "19870281728", "-235843633152", "-117285937152", "-152649498624", "24363546624", "-203339661312", "-99659751424", "-125462102016", "-111183093760", "148793065472", "-21378443264", "-254427021312", "92637716480", "-157343006720", "94217658368", "189661806592", "250439188480", "141642235904", "-130367741952", "239499984896", "-9232348160", "26436716544", "236020629504", "-18082351104", "-129393369088", "201150644224", "214685253632", "-54663352320", "-208117514240", "-234409803776", "229085347840", "-228302848000", "148277673984", "-195321511936", "-223771672576", "164493213696", "249187663872", "-54815604736", "-118202138624", "-186321321984", "-231614431232", "-129788133376", "-227222142976", "-213733195776", "22081017856", "-237042253824", "609368064", "-99792363520", "-128276373504", "-251248721920", "11122222080", "182084681728", "-120790573056", "-49645051904", "155349827584", "194333294592", "247299653632", "45998313472", "-227910778880", "-224273711104", "-225894481920", "-105360277504", "-61360648192", "228483072000", "83406266368", "171929714688", "39897415680", "-13858985984", "214244458496", "204195266560", "97824219136", "2757608960", "-128366157824", "-47584772096", "84274675712", "229361270784", "-231604895744", "84696801280", "240698540032", "-164109647872", "-53101522944", "251599339520", "113162870784", "102308151296", "-88732983296", "-211576045568", "-39843409920", "-34780442624", "-80665018368", "-239645868032", "-111500918784", "166335283200", "107332018176", "-159731712000", "-189581000704", "152035377152", "101131378688", "-61815009280", "-54650916864", "-136297422848", "-107254505472", "-109515292672", "-134292242432", "233853485056", "-150460874752", "82557198336", "-40602058752", "-212047921152", "35857944576", "173106364416", "-139345707008", "-127055077376", "-31571834880", "108415754240", "-196432576512", "39516688384", "178245566464", "218736738304", "-251396505600", "-139896307712", "-94555512832", "68342296576", "44907839488", "143293759488", "-113839702016", "-237592592384", "-123807694848", "-113651261440", "188316942336", "254341218304", "-34837798912", "139138940928", "-31340226560", "-172427706368", "-52327960576", "208697638912", "170554671104", "-235288395776", "46014398464", "-48683048960", "-32923400192", "34516869120", "-150051422208", "135493959680", "72568561664", "222859001856", "60103118848", "-26508808192", "55722147840", "-187678048256", "-116945952768", "156161753088", "-73017360384", "-131832971264", "-47812431872", "240312270848", "248586977280", "-201937829888", "-29776408576", "-21101967360", "-22934525952", "-182168010752", "234103357440", "202908418048", "-189425909760", "-91675508736", "-168120844288", "10837644288", "185595904000", "113939357696", "-1143787520", "-249985630208", "992825600", "3410816256", "154246873088", "64305172480", "-189463003136", "194342600704", "205670891520", "-72014856192", "243104202752", "-57259941888", "87978532864", "-180496777216", "178822529024", "72189657088", "73706954752", "-184841207808", "-163363536896", "-186763837440", "218654916608", "144424943616", "193123876864", "-79650340864", "146904973312", "7485570048", "-27939588096", "-166771523584", "2239261440", "101413076992", "217620463616", "-54806061056", "-242819710976", "-195805315072", "33333538816", "93510475776", "47888928768", "-226278080512", "71347650560", "113497669632", "-178741985280", "33482618880", "232630091776", "205995114496", "-63511371776", "-45233876992", "192750993408", "-226168012800", "-213868298240", "-185481396224", "-40716537856", "51590799360", "-47095754752", "97884651520", "-150034235392", "214515073024", "-212376469504", "-10075472896", "-104267776000", "177517985792", "-64487636992", "85493751808", "-92816138240", "67013591040", "172675596288", "67807154176", "-226631139328", "-28252243968", "225031307264", "-131602825216", "-73934643200", "148162625536", "229253857280", "235742363648", "-237394051072", "236926124032", "-40567205888", "-129531158528", "-14611623936", "-128095911936", "49545424896", "-55559667712", "39322345472", "-241010524160", "55995498496", "164858511360", "11673733120", "33619406848", "125946281984", "103587438592", "-81616896000", "-8137586688", "99356327936", "-10952916992", "-75913920512", "151770218496", "-181596389376", "139190288384", "1591443968", "-37653008384", "105159753728", "-158162059264", "71703748608", "-133039382528", "-246605692928", "91365564416", "38614532096", "-246131064832", "-41147543552", "151165408", "-241097179136", "3888516096", "19023788032", "23342884864", "-14370206720", "-154942636032", "203368431616", "-94467833856", "149903785984", "-215102783488", "218617151488", "-21591275520", "-123959361536", "-78874124288", "-214455779328", "163165749248", "199833862144", "-231064698880", "-165347852288", "-175835824128", "144960602112", "-208525213696", "-174720286720", "81661190144", "84981268480", "27681105920", "74682949632", "119000162304", "-110081957888", "-64313524224", "190874910720", "215484579840", "-182197698560", "121311223808", "-239022211072", "138996727808", "121004343296", "66562121728", "-239349481472", "14132040704", "132788625408", "-39710789632", "159491981312", "121726959616", "-190585634816", "-140432539648", "168821424128", "141050920960", "-168675459072", "8001914368", "-17323776000", "-3990345728", "178490687488", "201524477952", "186581843968", "4258992640", "-106415554560", "39539396608", "134896992256", "-99289014272", "81954840576", "-117761925120", "-150965501952", "-115091783680", "115055206400", "210389221376", "-151897636864", "-249759023104", "230982467584", "131610886144", "70003867648", "99299598336", "59665948672", "-140600655872", "-221563944960", "-53785010176", "-103458422784", "219844526080", "-216452825088", "208139386880", "11822646272", "154265632768", "77648445440", "151986667520", "-38731501568", "-41455951872", "133320556544", "10836405248", "-23846909952", "-237485932544", "-73821356032", "-57428746240", "5810743808", "-223967936512", "-243851608064", "-131705167872", "-35758927872", "-22594682880", "-232828469248", "-153706233856", "220868870144", "-57898164224", "119765057536", "-138832592896", "-228550656000", "233554116608", "-67218563072", "75094310912", "255299715072", "205056966656", "-213946318848", "44209258496", "-227444555776", "-93438844928", "21892145152", "164433707008", "-175100608512", "-144196485120", "-168133738496", "197978210304", "-132257488896", "74683179008", "237412007936", "-103660863488", "-26133209088", "-105311272960", "-132736876544", "-151377264640", "-182998351872", "48312922112", "238774599680", "200737587200", "113720279040", "106943954944", "216855101440", "-253027762176", "167439515648", "20989421568", "-177289035776", "-221479993344", "-93814095872", "165768118272", "-195041902592", "170767581184", "207852339200", "211000180736", "73909207040", "-160436797440", "27336507392", "-229010931712", "-40955416576", "142383464448", "-122677002240", "-37802254336", "-140436930560", "-61455228928", "-162851110912", "240898375680", "-153658818560", "-52524208128", "-243762872320", "-54442700800", "-220618063872", "-219063992320", "-66033975296", "-158668390400", "183700717568", "-201147695104", "-163822567424", "-137318907904", "121166315520", "78616903680", "244183269376", "-254705696768", "-148806565888", "174451572736", "84271423488", "155717074944", "-69992333312", "147643498496", "-253979770880", "-154102939648", "-48955789312", "89020432384", "220178219008", "-164361404416", "-92047097856", "-69462605824", "-93210042368", "137361121280", "204021039104", "16796052480", "-148467482624", "-118578077696", "-96494985216", "252115910656", "-227414474752", "-131341041664", "-195782918144", "-25634605056", "189770334208", "237460340736", "106613579776", "47227322368", "56655552512", "-180250263552", "212007665664", "27352094720", "-201112469504", "-169197142016", "-55022743552", "-49248903168", "99691773952", "-108475105280", "171720409088", "-240768598016", "81968332800", "103007379456", "88775024640", "112325353472", "82666807296", "196872847360", "-240453664768", "-49140064256", "-80579592192", "10874628096", "36550631424", "86982959104", "-64828841984", "37387182080", "188616851456", "141964804096", "-222799331328", "-28740610048", "-235254562816", "182901669888", "101102764032", "22669676544", "118568329216", "-114365399040", "-5330521600", "-212897169408", "15847530496", "-36646305792", "-241872191488", "50626879488", "187233042432", "8110751232", "22405236736", "-226555068416", "-121974390784", "208945250304", "-188386869248", "-183217029120", "-67568877568", "-30315696128", "-199797145600", "-221456859136", "105137422336", "227368386560", "-56649330688", "7609084928", "-215340613632", "27530729472", "-232171601920", "221649682432", "-54952284160", "78810546176", "250514358272", "214810083328", "144843456512", "236776554496", "-248757501952", "134014844928", "118493765632", "-244465680384", "-103877091328", "90853220352", "-198588448768", "3054363648", "3935991808", "-79094652928", "51468414976", "-129284620288", "148226703360", "-215607164928", "22634145792", "-159475335168", "236904824832"], "dense_bias": ["99593080", "99906232", "0", "99646336", "0", "0", "-99881960", "-99807664", "-99756344", "0", "-99719504", "-99851912", "-99263792", "-99830576", "-99721576", "99489768", "-99730976", "-99871120", "0", "99878632", "0", "-99822672", "99883472", "0", "99179712", "-99315984", "99915432", "99686112", "0", "-97595264", "99767272", "99826008", "99832792", "0", "0", "-99597128", "99309360", "-99853088", "99127656", "0", "-99785144", "-99826080", "99879976", "-99828536", "99214976", "0", "99642680", "99795744", "-99773688", "0"], "dense_1_weights": ["225792720896", "243034193920", "84835565568", "-3396451584", "-90911883264", "-131242606592", "116522835968", "-175975284736", "-58710925312", "-69565071360", "193398358016", "27688667136", "-53232132096", "-238739898368", "178792071168", "-125733699584", "242601639936", "-93418094592", "-159937478656", "203160059904", "-240396206080", "-7768884224", "29518053376", "27742699520", "224942964736", "165767512064", "-144375808000", "25645121536", "15428855808", "34305736704", "-146440290304", "149640740864", "-186866204672", "107186954240", "-194707177472", "-213860876288", "202323214336", "-173926776832", "187264925696", "32912238592", "-222617600000", "202125180928", "-240171581440", "208001302528", "-6392427008", "98341879808", "-42539134976", "219457486848", "13617440768", "-85054504960", "-94035017728", "40845991936", "-95280955392", "-28281874432", "212307722240", "-232060960768", "-153197985792", "12058571776", "-150884122624", "-153365250048", "-213430960128", "-76934242304", "155590672384", "-231985545216", "15000567808", "-88200929280", "121805152256", "-197637341184", "68598312960", "26305441792", "227102883840", "-135290380288", "-183749165056", "-211325698048", "-237267910656", "-210438848512", "-147305152512", "-190855495680", "-119698604032", "157535649792", "-167965868032", "207172567040", "-35110707200", "-79690194944", "-8659617792", "-4133637888", "193202765824", "-154905444352", "-55659712512", "-113776082944", "-119117389824", "36193333248", "218880671744", "-180375568384", "154024984576", "233347055616", "-172246958080", "224555745280", "134296879104", "83448782848", "-209737629696", "87146209280", "190199889920", "-117949095936", "241263788032", "1072704768", "-42960674816", "-105228378112", "218799194112", "-188506685440", "-10476678144", "32527253504", "-34643218432", "-195610345472", "86537789440", "-22092343296", "-111873875968", "11705771008", "-126991065088", "-18657818624", "-130716590080", "-5697548288", "35393609728", "133778882560", "38607732736", "-149333639168", "-41117786112", "-77031211008", "3706023168", "200552988672", "173954203648", "-218598998016", "11748746240", "155168718848", "-193748238336", "163475521536", "-130029092864", "-128717078528", "-171249434624", "1285627520", "-134876340224", "66798374912", "15533670400", "31044825088", "-239630630912", "70703251456", "101811724288", "138755457024", "-52621082624", "77289807872", "138715168768", "-51494158336", "-32604944384", "-121316130816", "176776298496", "93451149312", "185044369408", "-207917383680", "128351125504", "112516923392", "-117789712384", "184211275776", "142902591488", "66677645312", "-56084549632", "-65758720000", "75211161600", "71017299968", "242647416832", "-186677657600", "61247377408", "-214653763584", "-202472554496", "12295439360", "157670506496", "-82585083904", "-44062969856", "4184216320", "-41601159168", "-180528955392", "-16171187200", "12700514304", "-179662405632", "122221076480", "-24953014272", "-210165989376", "-131749363712", "188322398208", "-130185322496", "4134350336", "236689489920", "49385795584", "230220251136", "21188857856", "231934541824", "-66481434624", "-42023227392", "54784876544", "-222475223040", "-55244193792", "25211557888", "101890342912", "94132887552", "42767302656", "238369685504", "105644417024", "-190611210240", "-89168920576", "-158590271488", "-855267072", "-34547851264", "211698630656", "120600657920", "-121468010496", "-158620598272", "54091259904", "-240884006912", "243458408448", "-42665570304", "-217780535296", "-25096744960", "-41761071104", "116295827456", "36835684352", "-137984278528", "-1235932160", "-18761068544", "116684537856", "95329861632", "-140089458688", "-184536875008", "-110045536256", "180583792640", "-22501259264", "-128284393472", "-107088494592", "-121841541120", "-221982490624", "-45473173504", "25650724864", "-90965893120", "-209867259904", "223104368640", "-15355214848", "33799276544", "-97717387264", "-37125529600", "-208381919232", "-68912922624", "214032334848", "92286451712", "230953385984", "109005438976", "93012254720", "166160891904", "-63401029632", "-157785178112", "39276314624", "-29914781696", "61815693312", "33737674752", "-111553552384", "-86892527616", "81201242112", "94053875712", "16469612544", "119464116224", "-78814756864", "-193312571392", "-191872532480", "-241429692416", "-55785267200", "97729011712", "153873694720", "-178253627392", "-241154277376", "-182273507328", "206781038592", "-434026112", "89942204416", "-101685526528", "-19415855104", "-145322000384", "50061209600", "-131530924032", "49588514816", "83224756224", "-36757020672", "-157438558208", "-24154976256", "-47632113664", "210662440960", "199527727104", "-172685033472", "70302564352", "-129748549632", "86991298560", "207305031680", "-200936800256", "-19099965440", "-32813713408", "-46183292928", "-202976804864", "-234078175232", "-179750551552", "-92885868544", "-210761105408", "110115397632", "35807911936", "-107865391104", "-125808689152", "-177174282240", "-7579669504", "-219620655104", "158143823872", "105855893504", "-20829947904", "163471572992", "179204079616", "-79641616384", "-26663700480", "134374113280", "-36664840192", "227625943040", "6187871232", "82654879744", "-212505739264", "197247303680", "-86581821440", "-97932632064", "-130114478080", "-109370064896", "-170525409280", "-113545420800", "-115567853568", "-232818262016", "-155014561792", "7673275904", "-30543400960", "-182284091392", "164776525824", "155981807616", "113314578432", "-135759798272", "-75657027584", "-187760836608", "221838868480", "-89811451904", "-17231554560", "170718380032", "239958114304", "206066909184", "-177215340544", "-39022149632", "-136316436480", "-57582350336", "148844347392", "-241491460096", "-64218177536", "-186028294144", "-103284547584", "115504922624", "59259875328", "99525287936", "-91608662016", "137123119104", "-219098251264", "-225035255808", "-214663282688", "-229990842368", "-30520694784", "-63803703296", "145199431680", "-56592138240", "47406510080", "124391718912", "-69927337984", "223802425344", "9621694464", "233362276352", "12052550656", "-89658777600", "-55950901248", "203892277248", "-44935319552", "4203850496", "135411204096", "172319703040", "-10678157312", "170049355776", "-179865157632", "240480501760", "-12241452032", "74405380096", "156025552896", "-32798097408", "11243715584", "221015080960", "144297885696", "49612357632", "-53797961728", "-158490820608", "85592637440", "162459598848", "223756173312", "161715912704", "-115290718208", "-46222917632", "-78067441664", "64426942464", "23105241088", "70581518336", "-82970361856", "206165573632", "11734559744", "119040950272", "173830799360", "-101698035712", "-122457636864", "-92252626944", "-26593681408", "-63471345664", "-241950441472", "192573227008", "-52969263104", "244090421248", "210903367680", "92982157312", "-144368861184", "-138084958208", "231908392960", "-227659251712", "169564192768", "-186595917824", "85242036224", "160739917824", "7956817920", "-115281051648", "-160065175552", "-99232006144", "181205106688", "99330875392", "-137356828672", "-13827555328", "-94473551872", "-168912191488", "47428354048", "114653691904", "-2269610752", "-181231108096", "-168297775104", "-77310722048", "-118209331200", "-5852937728", "-167062126592", "-167135232000", "-23627444224", "112428859392", "6501004288", "41046007808", "212674805760", "-232180318208", "-50718859264", "134236561408", "-24721473536", "-170144432128", "-45923201024", "-64615874560", "-137666396160", "-231868563456", "-183025926144", "44204756992", "185636470784", "75605827584", "146804260864", "-150129934336", "-27957200896", "-190699978752", "124160573440", "190572838912", "3880351744", "-194934816768", "216793104384", "57698295808", "-163728113664", "-4036933120", "69657403392", "48499838976", "200729034752", "197770100736", "53944365056", "190472798208", "8845672448", "-18707693568", "-125138075648", "-196417142784", "4269883136", "-51911057408", "-180125646848", "-1693204096", "90300243968", "-14246752256", "26864066560", "-170419552256", "7950412288", "-181111799808", "-154505756672", "200586346496", "-112327671808", "-241802952704", "-165891964928", "238841626624", "-105238544384", "173151420416", "-43619401728", "192752287744", "15414985728", "76009046016", "-203170906112", "146534432768", "144711974912", "62144634880", "123844755456", "-147725516800", "200734621696", "-185498304512", "-238133477376", "-134284795904", "-31877961728", "233478864896", "-207945547776", "184431181824", "87258054656", "-41973325824", "-36325285888", "-119300317184", "54235869184", "147881230336", "30710085632", "24513499136", "-226647703552", "163546349568", "-163323576320", "-114232893440", "-4700473344", "156960276480", "-104571265024", "78615756800", "133453742080", "3536611840", "157127000064", "-53382918144", "-90904002560", "-10182684672", "-15542480896", "-244089192448", "55895015424", "-203892129792", "26074204160", "-212349419520", "221026533376", "-81481744384", "62841905152", "-202078699520", "-38589628416", "155816837120", "90782154752", "-23107289088", "-215176052736", "-244666105856", "-30514886656", "107696668672", "-226009710592", "-113524269056", "4964739072", "-107295350784", "-48677130240", "23169114112", "209545084928", "-56898387968", "76465831936", "65079844864", "-163492118528", "-132296351744", "182509993984", "-149876817920", "-172055216128", "7676200960", "62961561600", "177312743424", "-163393699840", "-51507408896", "-183731945472", "146475843584", "-111201599488", "-98655084544", "26755557376", "-72811839488", "-129611653120", "101243658240", "-93434724352", "117241815040", "-158828068864", "-207837167616", "-28929009664", "-235792678912", "-90684760064", "32558888960", "-201214230528", "-232076935168", "-102845267968", "-23499593728", "23946031104", "-99042385920", "-35471282176", "22704199680", "-138360750080", "142935752704", "112892313600", "122713382912", "-104394964992", "-227476963328", "-125344202752", "-179282051072", "-102336806912", "18353969152", "-54712397824", "-81881374720", "25736032256", "235959238656", "243092881408", "-1791346688", "168095498240", "-156903833600", "-8086233600", "-111972499456", "-94798970880", "148756430848", "-98454061056", "5858074624", "-86559604736", "-197537628160", "-40645156864", "-133527633920", "-44504477696", "-36288602112", "-234865508352", "122643619840", "106923507712", "-87836164096", "208798482432", "-83417939968", "48868720640", "144513581056", "-113106132992", "-151551328256", "-180981219328", "128335134720", "-82051940352", "135420518400", "13184324608", "-88912658432", "-190216716288", "-202721574912", "-11228233728", "-165854003200", "-92450816000", "228284776448", "-51219193856", "131827744768", "13451081728", "32761591808", "74470866944", "-91774042112", "26620194816", "-153528942592", "-171798691840", "130044239872", "-17454116864", "118563020800", "-103367688192", "-230417809408", "-113821417472", "-4789568512", "-229870567424", "183858692096", "-191990398976", "205611548672", "212188282880", "-42369888256", "136517033984", "60439769088", "-192291962880", "-214284369920", "27753852928", "-177416044544", "-148992000000", "-128839196672", "-238870642688", "152037212160", "-176730308608", "-177081548800", "-114621489152", "206176534528", "61519704", "234627776512", "27054682112", "-158024892416", "119516659712", "-85837471744", "-196592631808", "124211249152", "-180013187072", "-209568202752", "-22497675264", "-46623305728", "-121267126272", "-218772979712", "-86336462848", "148306935808", "-81685626880", "-225121484800", "66758328320", "23374393344", "-98858655744", "-221899456512", "8184567296", "-223622791168", "-170328686592", "95386558464", "-162768060416", "-190657265664", "-177077977088", "-184679694336", "136540995584", "124949823488", "165792792576", "33466181632", "-46557024256", "-200657518592", "147198754816", "244828356608", "202404118528", "-77678452736", "41202814976", "137539321856", "-212844347392", "-113103020032", "174297399296", "-231391264768", "-61517328384", "57835417600", "-44330000384", "207472492544", "-148420837376", "43149766656", "216919228416", "-184822300672", "-35931512832", "87244169216", "207692169216", "241223581696", "202309500928", "-161475313664", "-132029833216", "-22594527232", "-156208644096", "100788166656", "-30924390400", "-225896038400", "-53918806016", "193768439808", "-75971788800", "-226652012544", "-182673670144", "-62135189504", "-9416997888", "-103197040640", "81506181120", "198799147008", "90790223872", "96924385280", "177063395328", "-145766629376", "198830571520", "-97548132352", "232403779584", "-190670585856", "137252585472", "-124347826176", "206247247872", "-161468252160", "153295732736", "91228315648", "-223618793472", "-31689789440", "-94897938432", "166160236544", "-1979649024", "75006943232", "-208254369792", "204441059328", "-155058896896", "-114317762560", "83335831552", "-54513082368", "159569543168", "-78202683392", "-217248366592", "-43920351232", "-244121567232", "115626729472", "240013787136", "-237152878592", "-180188839936", "-37904531456", "186744586240", "112940998656", "-229295276032", "-134944989184", "107663958016", "-165526716416", "-242955321344", "-78163492864", "152254300160", "-64814211072", "67174866944", "-195320020992", "-169956687872", "87509352448", "81481498624", "181610905600", "87722278912", "61076946944", "97559527424", "155588722688", "-80615890944", "212368195584", "217894174720", "204401983488", "-56836485120", "200522432512", "-105193463808", "-73994706944", "-57092018176", "-147985793024", "-85354029056", "103579803648", "148994965504", "-232743059456", "-86444662784", "-18674001920", "203165843456", "-140414517248", "143185543168", "20809707520", "-154546798592", "40060362752", "9268025344", "-176465281024", "72820203520", "63012405248", "-173695713280", "60063854592", "-166540951552", "134069993472", "60851785728", "205047808000", "-38110158848", "-98324897792", "128207233024", "-74481213440", "-54145462272", "123881357312", "-236284510208", "187626078208", "104835104768", "-37513019392", "164445618176", "225489223680", "-60014456832", "240108994560", "114016493568", "-73318662144", "228468588544", "216249368576", "133601738752", "-71816241152", "-242195677184", "194780545024", "-202575937536", "244820049920", "-46174294016", "10039032832", "178551799808", "-176942710784", "127239241728", "-221466148864", "102606249984", "16485020672", "79532277760", "109880967168", "127552520192", "122857406464", "-192747487232", "101527674880", "54121689088", "128487514112", "-151272112128", "226346991616", "-39769141248", "109833256960", "-59394879488", "153278873600", "216425218048", "98013831168", "-221233152000", "169799647232", "-204952174592", "-55727509504", "-56213868544", "190800527360", "60461268992", "68315250688", "239621029888", "29818191872", "34225180672", "-200001978368", "182625927168", "-229189091328", "-64748974080", "129572700160", "244032012288", "113315028992", "57156636672", "-214960373760", "-236662947840", "47444357120", "-37526102016", "-82845851648", "134913310720", "106894893056", "114558386176", "-120740044800", "-70254387200", "243896942592", "174616494080", "-20313874432", "77054517248", "9016975360", "192177094656", "239913402368", "44159131648", "119934066688", "179880165376", "-180846149632", "-211702677504", "-150819733504", "-139257888768", "-46375854080", "69175238656", "-168879669248", "-182624944128", "20690335744", "-85211176960", "82127642624", "-66445217792", "-72174534656", "134205341696", "-37158572032", "118453796864", "199552155648", "160862552064", "77983539200", "92165218304", "68520435712", "89659645952", "-173149552640", "-101788696576", "-112992772096", "-90612637696", "115937312768", "-94599823360", "233025257472", "-230708510720", "-14840893440", "-56896049152", "138802921472", "-203763679232", "61819256832", "-2561066496", "-29088163840", "37887225856", "144143171584", "238761033728", "60178513920", "-74007764992", "143448489984", "-101345050624", "183317413888", "-169140076544", "126539456512", "52191035392", "120498044928", "175276507136", "-215683891200", "-95305695232", "-220482699264", "78929289216", "-233349824512", "-148045856768", "-195458957312", "192732938240", "-235803164672", "-239609888768", "66279366656", "142954151936", "194015870976", "195923886080", "-126304272384", "-59782729728", "28898729984", "77432946688", "20742879232", "240537124864", "160803536896", "-4474699264", "151763632128", "-73385926656", "-152537546752", "-41550008320", "71591272448", "168991899648", "-123438440448", "58923139072", "-174592278528", "92005416960", "-181369110528", "140351995904", "206070743040", "45484081152", "155661778944", "-57699409920", "-151298457600", "10193481728", "7400497664", "113585364992", "45814411264", "70769950720", "103044317184", "28616116224", "217360826368", "-136835399680", "203582980096", "53345230848", "-138957504512", "-171364597760", "225264615424", "-194192326656", "-43763204096", "196147806208", "139801657344", "127670837248", "240956325888", "145982799872", "111063580672", "-160298352640", "151454711808", "-172562874368", "-28919709696", "97192280064", "127693611008", "202934026240", "-134583803904", "1994609792", "187825455104", "-218848903168", "-172502073344", "-31934406656", "15647672320", "-79163596800", "45901512704", "-71457153024", "182745677824", "209891311616", "-229856018432", "-72008777728", "80219037696", "193070776320", "217913049088", "140376080384", "216188813312", "-142911127552", "45358977024", "-51040006144", "206205091840", "219285438464", "-89934118912", "-62953799680", "203016257536", "-198677184512", "-96932257792", "108082225152", "174127497216", "76101738496", "225071988736", "157868277760", "116773019648", "9805899776", "6215199744", "-20165910528", "124869820416", "-45912743936", "20921751552", "200001323008", "71996227584", "185534136320", "26829115392", "-128412213248", "182977347584", "-31230412800", "46531321856", "171874009088", "121160876032", "-84287758336", "195386523648", "-1589015168", "-199912161280", "68473757696", "-205080625152", "-239680552960", "128410697728", "10691420160", "4490914816", "-57812144128", "-130277588992", "-121500778496", "37139197952", "-7351964672", "-88240758784", "-220821504000", "-83790946304", "136646836224", "-1463707008", "-17147283456", "219658600448", "196336189440", "164806295552", "134801637376", "168525463552", "215851679744", "-162853797888", "183939268608", "120997773312", "168287256576", "-133877039104", "-239091810304", "145010671616", "77263634432", "228934189056", "165913034752", "235651629056", "209052303360", "47575994368", "-183017226240", "210498519040", "54612770816", "-31744047104", "239658369024", "-81698922496", "18523619328", "-232987459584", "166705594368", "130713444352", "-228690706432", "-101259599872", "188859842560", "132593287168", "25153681408", "51431997440", "-87338180608", "166570557440", "-171627642880", "213524840448", "-139370004480", "-16676932608", "79993053184", "-149019099136", "98786074624", "-64465551360", "169964748800", "-28862461952", "1378476672", "-206997061632", "-164836786176", "105904709632", "100521132032", "-28912334848", "18916114432", "-219929722880", "221741744128", "-123801952256", "95885205504", "76850601984", "-183574528000", "-218697990144", "-85580627968", "5747343360", "241006837760", "97214627840", "56887046144", "-12944233472", "-211229917184", "32182052864", "182967222272", "90459389952", "45884674048", "-98034442240", "-172962201600", "110948261888", "-64893906944", "32485292032", "72377245696", "44268593152", "243343360000", "163165650944", "-181676654592", "59595599872", "-127756713984", "-181630779392", "-192985481216", "-49998643200", "-70026444800", "-48494116864", "147309510656", "152610996224", "-213226012672", "51973513216", "31837716480", "-69208539136", "205998178304", "-163321724928", "-141145194496", "-195867164672", "-123772821504", "-160903430144", "-91416584192", "115592347648", "-171144019968", "61976776704", "-224262963200", "126066343936", "-40688721920", "134887653376", "-184077828096", "217123946496", "85428076544", "-204834209792", "184040767488", "-95517556736", "-18889889792", "16546353152", "4536077312", "-224234176512", "11100873728", "-85698707456", "42569322496", "32342239232", "-19597531136", "52353884160", "-235966742528", "-28029843456", "-80637100032", "242296029184", "-136064376832", "42869104640", "160856621056", "-45478359040", "-111154216960", "230079201280", "179564675072", "-159560384512", "-127117484032", "217766903808", "159114018816", "-176119234560", "-161917272064", "-210450956288", "208151953408", "154372014080", "21932199936", "-49284685824", "76415385600", "-45800214528", "100567416832", "-87332069376", "-97631199232", "144490561536", "-240095428608", "114908528640", "-204128567296", "-73319546880", "-227332947968", "-60900610048", "-26140962816", "-235374788608", "-179210633216", "232584331264", "177742823424", "-213095006208", "14976181248", "-241880940544", "-92127068160", "-223281020928", "-184743723008", "-215304159232", "135143309312", "-233841082368", "-217123323904", "183745986560", "-9906379776", "119454597120", "-175901704192", "-126921908224", "-138098327552", "-135068368896", "-192047022080", "-235697635328", "-31920566272", "-97193943040", "-55458811904", "101317623808", "-47838371840", "-146612076544", "58706710528", "33954660352", "-233026191360", "120774041600", "213505196032", "60210454528", "-220167127040", "-94906720256", "-101799469056", "-168264122368", "176803250176", "-49511772160", "55311306752", "89486721024", "137006538752", "-116471619584", "-117262721024", "176790110208", "-71578812416", "75414020096", "-101573550080", "127435161600", "90235305984", "54546112512", "109607305216", "168000208896", "3770276864", "-152615239680", "208246177792", "-12716740608", "189503930368", "98932015104", "57231032320", "102750855168", "-129972740096", "-21742372864", "144795582464", "-174651785216", "-185990070272", "-118116646912", "-29118074880", "-13895877632", "-88144633856", "200916369408", "12811992064", "184603279360", "-207077130240", "137401475072", "149536980992", "148199112704", "-109404905472", "241630560256", "91432386560", "-110809448448", "-116088684544", "15153562624", "-112299565056", "-28151044096", "112025239552", "83873644544", "30019846144", "-192094404608", "-119422885888", "44891000832", "-46521098240", "-193502363648", "-226229944320", "-170884005888", "-161881473024", "-95592898560", "-185959661568", "17702862848", "-182926180352", "-52419022848", "-195158376448", "41132077056", "79125626880", "25580183552", "204123176960", "-59719888896", "-243003539456", "-136893423616", "-175632728064", "115944038400", "-25996759040", "-213151072256", "238273511424", "34020796416", "116812988416", "-157764370432", "-215478910976", "-61516447744", "114849792000", "-92788219904", "-10933950464", "-78658592768", "-83124953088", "19675508736", "27210549248", "152901844992", "128822788096", "-126527176704", "40187641856", "-139064705024", "74946330624", "-12860878848", "206132461568", "168456454144", "-169499049984", "-175727755264", "236459769856", "81837580288", "-194484436992", "33501609984", "110233886720", "182340730880", "159604326400", "-99053363200", "-39349420032", "-214443048960", "-163640033280", "201965830144", "148634599424", "-112985415680", "-126486986752", "-30571192320", "-163428941824", "-9218073600", "-174946992128", "-155247673344", "200198045696", "-131526483968", "109597106176", "46876004352", "-204397936640", "64126496768", "203384340480", "62871678976", "123877556224", "-210384060416", "-33160269824", "-172459474944", "212796637184", "-83870662656", "156350382080", "-240483975168", "6531313152", "-188287713280", "-121408757760", "-51623591936", "-73611460608", "-229553225728", "9304652800", "-53331111936", "-42257473536", "-186660421632", "59587665920", "-205053657088", "175793127424", "-212251590656", "-67047542784", "28971819008", "-115209134080", "-40643690496", "42149261312", "23879155712", "106598211584", "-75950718976", "120876376064", "47669968896", "216525979648", "135449067520", "125666304000", "97927323648", "-34901299200", "-4383936512", "119889821696", "-155220738048", "-48378466304", "32406255616", "-147261014016", "-728607168", "-162923003904", "217922551808", "-78069784576", "200435515392", "-61909352448", "-40504692736", "63189446656", "3163263232", "-175742173184", "-106043768832", "-108587278336", "89384419328", "88057978880", "-113662738432", "232770338816", "-80450994176", "-104286601216", "107525505024", "-145300668416", "174651801600", "-111143927808", "-92173451264", "149026504704", "-226087206912", "158970511360", "-224343965696", "-228070195200", "3467954432", "-193542782976", "187381645312", "233098543104", "-125966475264", "35357044736", "233124544512", "-67167105024", "9350092800", "182040559616", "87109533696", "-186678902784", "-46285955072", "-194861416448", "-10189860864", "-84513325056", "64325586944", "-6746064896", "89759760384", "155591835648", "65504030720", "11763068928", "56961163264", "-101521022976", "-110717509632", "-98690170880", "125096886272", "-130562048000", "-30088212480", "155375517696", "-10584130560", "-68610293760", "58885668864", "-14735355904", "67911995392", "81349828608", "105698844672", "-39534436352", "172056068096", "152722817024", "-201495117824", "19285909504", "-145743331328", "158852431872", "7244046848", "-29237807104", "-234244685824", "-39748526080", "-207804268544", "-1733214720", "50164801536", "141462978560", "-118980567040", "-71881932800", "-9436229632", "-1911908352", "11619523584", "198333431808", "-81479491584", "217335693312", "-172330942464", "-181802254336", "-13801410560", "-209689788416", "141080903680", "-237243662336", "-191609143296", "50108768256", "-196412882944", "-185122390016", "115024338944", "-236449071104", "174718189568", "-22964729856", "-48761307136", "226184970240", "92245557248", "168299528192", "-140348112896", "196020568064", "78073724928", "78041481216", "-147652001792", "-160869761024", "-135966957568", "-156187148288", "-2940676864", "-107635703808", "26224074752", "179281035264", "47686520832", "47845564416", "127833006080", "-156996026368", "-108042117120", "-126695784448", "145523589120", "-165061804032", "-174886535168", "-229124161536", "-92788187136", "25292560384", "233445670912", "-18023460864", "-67237941248", "-142168735744", "-57758449664", "2779617792", "132353081344", "150036758528", "98701852672", "-94264639488", "13037815808", "-234111729664", "168456159232", "241357815808", "47715110912", "203364155392", "169224388608", "-191943737344", "146230657024", "145516052480", "173379764224", "71830257664", "167040385024", "-194546221056", "-97355366400", "-80770998272", "-154113343488", "108479660032", "22646560768", "-128296763392", "-212925349888", "47492878336", "29940291584", "-203712217088", "28697774080", "133071822848", "-77459406848", "57712242688", "-240569417728", "21422669824", "143288631296", "221364273152", "105279610880", "-41899233280", "156367798272", "22741450752", "-159674941440", "188374646784", "241678843904", "49109889024", "22674753536", "-184585519104", "235202658304", "-43687522304", "145703993344", "-62319218688", "-244323385344", "-23439689728", "-184125145088", "22499397632", "-8077934592", "71732772864", "-35082801152", "-215761731584", "-51992698880", "-195942694912", "-131450863616", "138174791680", "-174926544896", "-171928338432", "-232958738432", "-167099449344", "-92155338752", "64205393920", "-196624154624", "-203104387072", "-243880886272", "-222306385920", "-77202038784", "48831356928", "-7741153280", "-221855121408", "21398140928", "88591556608", "-47822786560", "-38806585344", "127838683136", "50702168064", "189124984832", "181674557440", "-134151118848", "-148804648960", "26521608192", "125632299008", "76198084608", "149381349376", "-55616139264", "192391380992", "-201998467072", "-146491342848", "-42269618176", "217050054656", "71500644352", "-216676122624", "119971201024", "231091044352", "59391901696", "199872872448", "228954767360", "208067035136", "-76648693760", "175915909120", "-204605079552", "-205661421568", "44328525824", "-173127827456", "42724773888", "-165179932672", "86449610752", "12645358592", "-5746185728", "49805017088", "141603749888", "-17273903104", "143226748928", "139679678464", "-123072479232", "-34646855680", "-92119605248", "59538497536", "-42929500160", "105071976448", "129953456128", "217479544832", "-43506765824", "-75943518208", "169990651904", "189614063616", "228170842112", "91017469952", "113717690368", "177565745152", "218205028352", "-6272256512", "-197350801408", "-20002543616", "-205178060800", "-125571620864", "-84544978944", "100457185280", "-204405161984", "64583643136", "-158638227456", "-53498892288", "853523584", "-226655174656", "-52210466816", "50313592832", "209898127360", "-167230603264", "-237545488384", "-239761506304", "-239820963840", "67262709760", "82959728640", "70051094528", "-78165884928", "226946875392", "-7809534464", "217295224832", "-240719314944", "112928751616", "81948434432", "-203032100864", "-54678904832", "9192845312", "-110728241152", "112710967296", "63582257152", "-122470981632", "58280497152", "-84723490816", "188822634496", "-49168703488", "-207317368832", "-235793481728", "-57207369728", "222408081408", "38542303232", "-116002193408", "150912827392", "17005547520", "63334019072", "53913665536", "-235122688000", "-244409171968", "-129893122048", "239644721152", "-232182988800", "-91119116288", "119423778816", "-218936082432", "72893898752", "-189353017344", "43727470592", "186091143168", "-139122966528", "26233352192", "-157526278144", "-227787177984", "70364635136", "-3080502016", "49824874496", "-28098236416", "197643943936", "66732630016", "62767841280", "72428150784", "143869362176", "234964811776", "-134343188480", "-16581423104", "119878475776", "-130707341312", "184700076032", "104135180288", "-9815922688", "200518533120", "-162690744320", "-24006590464", "151287021568", "-210344165376", "-206396653568", "173374554112", "-212061634560", "-38101106688", "-25327640576", "20150345728", "141385318400", "190474371072", "-97096269824", "230205603840", "34399227904", "173628080128", "47664676864", "2376139264", "115068895232", "-210498224128", "129280163840", "-88943722496", "150948102144", "19590690816", "-180237516800", "4174396416", "-162617737216", "165500862464", "181478146048", "99713286144", "188223586304", "-32558895104", "244187054080", "77845979136", "-78484824064", "53223604224", "168333787136", "-735598656", "-233140191232", "80945807360", "174559576064", "144027451392", "-236435881984", "187550072832", "875128000", "-174853750784", "43231617024", "38178717696", "-49295114240", "-31472238592", "-229934809088", "-37087752192", "-161261830144", "-143626567680", "-160621559808", "-169793880064", "21737949184", "225953955840", "82415329280", "-58404569088", "160549044224", "-204744523776", "-7094567936", "-1652449536", "-68622417920", "33837185024", "45521768448", "97949204480", "197217271808", "22779801600", "-59235889152", "203635867648", "-145659871232", "-167683145728", "-222850383872", "-209919066112", "-49485684736", "-176439410688", "-207536570368", "47347351552", "44430241792", "110186176512", "172394381312", "71948156928", "35194351616", "-26098892800", "-108401745920", "-3284200960", "173093486592", "166772408320", "-207058157568", "208371171328", "-215748362240", "168897937408", "146163089408", "133806153728", "-205231226880", "-12693733376", "-241530961920", "-231781023744", "-173872939008", "41074855936", "142341472256", "198030163968", "20667656192", "65843687424", "-148826374144", "-119668932608", "-130030395392", "16661569536", "224869924864", "226124955648", "-194224488448", "244199800832", "198187778048", "82211512320", "-81451950080", "-230832373760", "-244007960576", "115030843392", "94175412224", "51773173760", "-176564699136", "-237579075584", "-211158401024", "-67209211904", "-179868106752", "-213530673152", "209986256896", "146283855872", "-98792521728", "-239565766656", "172051857408", "-56937455616", "87394426880", "-4981290496", "62667415552", "3257775104", "215650549760", "-190347116544", "209442488320", "-164027990016", "-112772775936", "244971044864", "69903196160", "-48022261760", "81135075328", "-88684896256", "-206388051968", "76816588800", "186722566144", "-244482408448", "-179411402752", "219648409600", "58586849280", "89488998400", "91319754752", "-171749228544", "217307693056", "137120382976", "219554070528", "-25033791488", "-25849683968", "-30717591552", "132348747776", "45867843584", "-131935805440", "226485780480", "-31653847040", "55950139392", "209724391424", "-171014471680", "43096023040", "-197034196992", "-24802818048", "-24856373248", "-139527684096", "-48214659072", "-241760452608", "-217893486592", "-47140323328", "138088284160", "-87224082432", "114217893888", "-34266951680", "167433601024", "-101080547328", "49174032384", "143245869056", "94524129280", "-56961044480", "48125038592", "-111601139712", "83324387328", "19944927232", "145145937920", "59364540416", "-99562283008", "-67460395008", "152167743488", "-128044711936", "-161634320384", "-29835626496", "125259767808", "-6610050560", "198843695104", "107365277696", "227179659264", "-202135699456", "-83882057728", "-6373409792", "-74887520256", "-44342456320", "35098755072", "-233199534080", "-108617408512", "-72773484544", "-234891935744", "121740550144", "113808531456", "61426077696", "-23215206400", "-112164741120", "183905861632", "-154856800256", "-59776188416", "161211449344", "-73471426560", "-214345940992", "208092643328", "33287587840", "243383517184", "178300321792", "-1705870080", "149819441152", "47220736000", "-79549849600", "72480948224", "132244856832", "-229616533504", "-234797858816", "-110358519808", "140575571968", "-110809808896", "5309619200", "19558735872", "151346348032", "176677715968", "229041864704", "-241073651712", "-1710027392", "192349143040", "3867456768", "-145012588544", "-180911177728", "175798452224", "-180007206912", "-54981795840", "183883464704", "-163807019008", "197028429824", "-151372251136", "191091998720", "-36803198976", "186019233792", "-102979436544", "183703519232", "-3772407040", "95697887232", "-126084636672", "100439810048", "221203218432", "-42282659840", "-12949228544", "11369648128", "-124446195712", "-236653068288", "208382083072", "-4784107008", "172293357568", "-84940554240", "-203855183872", "11499151360", "-237386055680", "-66242084864", "-173480755200", "11134043136", "-174182875136", "19843117056", "27199164416", "87070482432", "144254255104", "222037262336", "-152446337024", "236994887680", "143656124416", "-108337332224", "143504621568", "-144845815808", "-216845844480", "-74155122688", "-64633278464", "-238317600768", "-53334147072", "-51443265536", "195683581952", "-36687360000", "-176346906624", "-26290702336", "7450224640", "221468983296", "89353265152", "-92931809280", "-106237722624", "189008543744", "-62245875712", "194066923520", "-162143174656", "77983367168", "177707859968", "185804505088", "24914984960", "-66947870720", "-121372524544", "-22934362112", "-142672035840", "-99651321856", "41912152064", "-160272859136", "18921832448", "181036351488", "152374575104", "147537494016", "-42137743360", "42378473472", "152146886656", "50686164992", "94610915328", "101621661696", "-144584622080", "-45950009344", "-90685743104", "81221566464", "174120763392", "-172650627072", "104082849792", "-75594014720", "237243432960", "-48714067968", "76345106432", "-171422760960", "-9504899072", "160510492672", "163695706112", "-212134658048", "-221133651968", "166851198976", "-231346634752", "-34032351232", "67436834816", "37172011008", "141558759424", "-99336249344", "151750623232", "-151028563968", "-125191569408", "12921808896", "243647889408", "-162411102208", "-30348843008", "56442523648", "-73209208832", "196800266240", "129719869440", "-60132700160", "-135421665280", "-69655658496", "-129401413632", "106718584832", "-51880271872", "-79880044544", "-186974257152", "181843689472", "-194517549056", "-158297112576", "116868571136", "163457024000", "-75010973696", "2093076736", "-219614363648", "-120541782016", "-1707866752", "-32653524992", "220409593856", "-46852050944", "-217473810432", "105784762368", "-11159092224", "-41506902016", "-235445239808", "-37915869184", "-43753684992", "-190452596736", "-86473744384", "127597944832", "164997922816", "30113294336", "13693824000", "205684293632", "-169050849280", "-137255567360", "-110142021632", "200278687744", "-2078235136", "-101304229888", "-73454723072", "89812385792", "-239454781440", "114565144576", "146566905856", "-85635571712", "164447944704", "-34800738304", "181075410944", "240269639680", "170607017984", "103881728000", "-114122121216", "-165476941824", "-102027460608", "-101741576192", "155615821824", "-16516690944", "-236912492544", "-211070500864", "63292583936", "152994414592", "-156276441088", "-139973492736", "-40785432576", "-199695499264", "5989104128", "-137008930816", "160473874432", "-98078531584", "-88124547072", "-142555054080", "228605935616", "165862080512", "28910520320", "-92874940416", "24055525376", "14902409216", "43752923136", "-6424918528", "126514626560", "188467019776", "-206616756224", "-208209674240", "-148120485888", "127571582976", "33596084224", "-59973636096", "-149383806976", "-167644168192", "16030206976", "142248787968", "-190047371264", "-163726065664", "61973213184", "241113710592", "-14293552128", "189411885056", "-204205883392", "233830023168", "181036285952", "-239304327168", "-235730468864", "156129574912", "112989044736", "85371985920", "-202388668416", "-156518629376", "-97327980544", "-203494686720", "231678115840", "59666620416", "91256897536", "179582599168", "125440999424", "162078244864", "10561954816", "-155225833472", "34143991808", "-53415723008", "10364776448", "107768029184", "213283618816", "-166370607104", "-48128540672", "-208461692928", "-225931231232", "124234088448", "190715625472", "-78222934016", "-221415227392", "-153096683520", "-144461529088", "-62055288832", "101260296192", "-92172926976", "214714990592", "234399236096", "-114168479744", "182918823936", "-105402949632", "-237384728576", "-154107691008", "167831011328", "-96472571904", "220318564352", "-73621159936", "199093895168", "-41524187136", "-125939638272", "158676631552", "-114875539456", "-114619400192", "43314556928", "-143570780160", "-18962137088", "-143420260352", "210496552960", "112864927744", "234910416896", "-231798751232", "-64570322944", "-171798413312", "-126385192960", "-141967360000", "115321528320", "-244897202176", "-153745260544", "-138590765056", "-27804299264", "-173914488832", "85409398784", "-78275461120", "102248685568", "105730842624", "163051028480", "135564517376", "205063405568", "31608864768", "25406435328", "-16836865024", "69782274048", "-167944486912", "30820628480", "-173517176832", "-199135870976", "216019025920", "-110607843328", "187660091392", "-115326296064", "-143516598272", "147349602304", "107218436096", "126174896128", "-101534695424", "-162823962624", "30220546048", "128301965312", "-165019336704", "-211229474816", "201200074752", "117820547072", "24391516160", "-33305853952", "232555397120", "130726051840", "159146835968", "-228839211008", "-15495613440", "-113667710976", "-114478546944", "103487062016", "201213050880", "2745688064", "-23263215616", "174819966976", "-227222568960", "-71026188288", "198120226816", "193677295616", "-139107205120", "153234620416", "-164024205312", "101615501312", "-171559845888", "69790441472", "62282608640", "244208058368", "-160410550272", "-232349253632", "96001875968", "-137314779136", "-10336056320", "-57934118912", "45887991808", "-219324399616", "-72338104320", "60976996352", "-210654855168", "-44308541440", "189521625088", "143463858176", "52783026176", "237766721536", "-126631944192", "-109549895680", "-135216742400", "-62909943808", "98990219264", "175898509312", "-164001415168", "109500956672"], "dense_1_bias": ["0", "99639450151107428352", "99656840027012333568", "99921628815259860992", "-96743107825126866944", "99295672447520473088", "0", "-99568087448418254848", "99902655642610958336", "0", "-99851831817128640512", "99096282610893062144", "0", "0", "-99653752598361538560", "0", "94332855191739564032", "-99823209330434375680", "99857531685407031296", "99882626938799390720", "99162121367164289024", "99575608107952242688", "97931627118194589696", "0", "0", "-99239711703713185792", "0", "0", "-99207605964182126592", "-99797410389600239616", "0", "99946724068652220416", "-99749023081885073408", "-99923458402608480256", "-99880612633497305088", "99386184244718993408", "-99904265327634022400", "-99062927826152849408", "0", "99658414527663308800", "-99829929545503342592", "-99894554440937504768", "99516005781633761280", "96352095102010654720", "99920054314608885760", "99930785548095979520", "0", "99850459626617176064", "0", "0"], "dense_2_weights": ["-135842439168", "-167907295232", "-112042369024", "-30766964736", "-92311379968", "7549300736", "174021296128", "69468479488", "114173337600", "45783265280", "-32715364352", "-137690071040", "-241033510912", "-43899162624", "-196496916480", "-224325681152", "-45111730176", "42555883520", "-120646844416", "177222205440", "-4807233536", "147087015936", "157762387968", "93226180608", "104938487808", "-185348636672", "-100133003264", "-106301489152", "-229497864192", "14591976448", "102361038848", "154508361728", "242256543744", "222492557312", "42446569472", "192800440320", "20049735680", "186932461568", "-39030849536", "-199117209600", "24800643072", "-206585053184", "56745365504", "213426421760", "-239320219648", "-76719939584", "-111580594176", "-10691359744", "115581763584", "70687997952", "77333159936", "170731880448", "173579108352", "-59846967296", "218442563584", "-170713939968", "-72075616256", "186068008960", "-116611678208", "-91395981312", "185415368704", "154226704384", "-89459474432", "-143279669248", "197792186368", "-157030645760", "109812473856", "66907914240", "102458048512", "153909100544", "21540513792", "-238775975936", "-187335098368", "104458797056", "110038482944", "238906834944", "-60335562752", "-204800212992", "-142727446528", "224519864320", "128027795456", "-231426670592", "191132172288", "-2062849408", "205162070016", "-97591869440", "182403219456", "74906361856", "6063416320", "-97357307904", "86088073216", "-42341158912", "114215747584", "-25113751552", "6561234432", "124607545344", "-49993900032", "206406811648", "-84941897728", "-7486569472", "68853096448", "4674539008", "-133165375488", "2766892288", "126642364416", "-215760732160", "-149279965184", "-83387449344", "-17374332928", "-206364590080", "85966872576", "-80424222720", "-64832671744", "164478451712", "238283915264", "-38723510272", "242800050176", "233622798336", "6430735872", "130161197056", "-200880275456", "-125779124224", "-142081818624", "-179838091264", "-90425810944", "121026338816", "-198705872896", "71434436608", "-236000837632", "93268082688", "-199472578560", "232864874496", "50967236608", "175869689856", "-183873142784", "-89032384512", "74920632320", "-144529915904", "-229766316032", "-143952297984", "-221338337280", "167718846464", "59700207616", "3523357184", "205212303360", "-187293827072", "83649503232", "71533281280", "-183467491328", "172990611456", "96255074304", "114273714176", "-72854462464", "-6927802880", "138102325248", "86629785600", "-197786206208", "-69412708352", "-227388833792", "183960731648", "138070179840", "-126011269120", "-58793480192", "-1725795712", "-155908292608", "-93968105472", "-184940789760", "165871091712", "-96280264704", "-196749737984", "109518340096", "95259803648", "-194021048320", "118777675776", "196019814400", "-50283794432", "-133896904704", "150122037248", "-93437444096", "134108274688", "-193960673280", "92084690944", "198958645248", "-66324910080", "-78011645952", "60631711744", "-176289562624", "-162281308160", "221462265856", "175676375040", "-168645885952", "-208564830208", "-23522969600", "57809022976", "156536438784", "-146183045120", "214230089728", "-136119607296", "-25672265728", "-101723865088", "235807440896", "-197539545088", "159135858688", "-25664047104", "-201825714176", "-104144093184", "-24218288128", "5935475200", "185866862592", "-244693630976", "211508379648", "143423062016", "-137905782784", "140489981952", "85727674368", "120989884416", "86851665920", "143333752832", "-131304185856", "215625596928", "81049370624", "-223103434752", "105719734272", "105153871872", "112417202176", "169012822016", "152147247104", "-10454654976", "38912475136", "-141805813760", "131587399680", "-224946520064", "137027739648", "135234158592", "-16991362048", "220279652352", "39238434816", "-236106563584", "-123023974400", "-171153965056", "6079063040", "165094948864", "-175820701696", "217219956736", "239307603968", "45157269504", "-70312173568", "-139586813952", "90052034560", "-191206424576", "239080128512", "9972169728", "-224351797248", "186057424896", "-9863999488", "-48954269696", "-219186970624", "-102100516864", "5764868608", "-199360577536", "-47414390784", "-198144393216", "208206020608", "-57799372800", "207193243648", "-115513450496", "123107598336", "78429315072", "78274142208", "33213571072", "189476847616", "1202821760", "-177051090944", "-65738797056", "23190493184", "153650806784", "10169014272", "139200020480", "-222176034816", "8020535296", "218725908480", "-139169153024", "-56816332800", "78547025920", "126495522816", "87174201344", "-28491618304", "-4461154304", "117066424320", "41720799232", "-121477709824", "-196064329728", "242846629888", "-36092866560", "-242314756096", "210419580928", "239619964928", "-169086926848", "124550479872", "52523466752", "-102204006400", "107733057536", "238146879488", "-139175411712", "136235548672", "190985961472", "-208969957376", "26807769088", "134698434560", "74307903488", "-80034103296", "186887421952", "86614327296", "152941084672", "176341811200", "222975115264", "-190683217920", "85965144064", "135352713216", "134847356928", "170180313088", "74714169344", "-49638465536", "103979483136", "70700720128", "211517800448", "-56205225984", "240971431936", "-120235589632", "-27995095040", "213589770240", "229038850048", "-186441547776", "203151441920", "-7782906368", "-211233669120", "157315743744", "-198496305152", "237320224768", "-59133841408", "-54386585600", "-109707157504", "97997086720", "-132970545152", "-102946447360", "241171906560", "-111970828288", "-66440077312", "-161051852800", "24825229312", "-101142020096", "-162888548352", "-166976126976", "69630967808", "48710447104", "-238094876672", "132739440640", "176402857984", "155195768832", "74627710976", "156618276864", "134968082432", "108748775424", "11603198976", "217221218304", "75264851968", "124653674496", "-240951394304", "117326880768", "89312108544", "8056370688", "-74933592064", "133587869696", "1289486848", "23199680512", "-229820514304", "-20146089984", "-45512957952", "220880764928", "-116708196352", "97366376448", "-117419311104", "154845036544", "-152708546560", "-65888538624", "-221981687808", "-232880029696", "-132522549248", "-20297750528", "35951067136", "-192979271680", "-229385617408", "-70896738304", "-1015454656", "115900727296", "102036725760", "-95897640960", "44972892160", "-12786977792", "163428270080", "-48498311168", "-97533075456", "-192473825280", "-5545765376", "175270559744", "7388837888", "-107576000512", "-227604103168", "123957575680", "139044585472", "42404159488", "172421054464", "116994793472", "-236919554048", "-79100944384", "-83973947392", "-203222859776", "117490311168", "-6241717248", "-217779879936", "89732186112", "115894984704", "-237709230080", "185156386816", "-167920058368", "127567544320", "27196362752", "-187161001984", "-186623197184", "48132517888", "187479654400", "162502852608", "111217295360", "118203285504", "109033185280", "-70278488064", "-44068892672", "-200695021568", "-226159230976", "-4683720704", "80179585024", "23344203776", "-135786029056", "-197596348416", "-109977935872", "93067599872", "103387922432", "-173746896896", "-230551093248", "233336963072", "-154505641984", "-121150545920", "47845318656", "-158430969856", "-160460603392", "-185821790208", "-13376951296", "152224104448", "-102809903104", "157780656128", "67175522304", "-243507527680", "-198014271488", "26300325888", "-197024546816", "145630396416", "-47016099840", "203086446592", "131831693312", "-67531808768", "-86875824128", "41874780160", "108423184384", "-145507663872", "2489134592", "-11104777216", "243663749120", "75712069632", "-32306044928", "-155705180160", "-212758495232", "-152902123520", "-115035906048", "-59452993536", "-134305701888", "177880924160", "25626138624", "-8079871488", "-234902175744", "-14029875200", "151767597056", "-242479742976", "175226257408", "232839659520", "-51893411840", "122040344576", "-81978957824", "115944103936", "205555220480", "-137694035968", "151441047552", "208046309376", "26713624576", "148234584064", "214861774848", "-152379588608", "159375867904", "168910651392", "-73330688000", "-232347746304", "80173801472", "1453355008", "67170783232", "45868216320", "-230978650112", "-86054797312", "160769605632", "3770989056", "-5539823104", "-218270859264", "-66316513280", "33210828800", "200958410752", "-32724887552", "-194032336896", "-204851036160", "95856861184", "-106467377152", "64557715456", "223951355904", "47893372928", "192220921856", "97662541824", "-170920919040", "9199395840", "-173775257600", "54887964672", "-74512171008", "121105506304", "-242794512384", "-30864433152", "208105455616", "-62381309952", "-189519888384", "-153607553024", "214654631936", "-24167417856", "87592878080", "51066757120", "-158965350400", "-62071205888", "-18194989056", "17577648128", "-204045041664", "193985413120", "-64581775360", "179727237120", "-95388385280", "85954060288", "-141443104768", "67658407936", "19621713920", "166647054336", "32467144704", "-45713719296", "122671554560", "-126270128128", "1516859392", "127331090432", "-145650024448", "178864390144", "-231320371200", "190614536192", "-185878134784", "-109479018496", "225977090048", "58094010368", "185967034368", "90373160960", "168242413568", "67728117760", "178044862464", "163554443264", "238155382784", "48910958592", "98225725440", "66404552704", "53075329024", "-16794369024", "91791663104", "-167980072960", "152684527616", "-28120948736", "-49566932992", "218088882176", "-217131401216", "229991120896", "-206545207296", "-75778662400", "974557824", "-50503311360", "-29396592640", "243811270656", "212971077632", "-198207291392", "64052715520", "101434335232", "17617358848", "-135869202432", "88967036928", "7497504256", "-174712635392", "-21821007872", "-59207589888", "-230198968320", "-9320526848", "88668717056", "107494842368", "165682479104", "152442535936", "105842696192", "-157188718592", "-47632752640", "-108553412608", "131341770752", "-53969084416", "181386641408", "-205681836032", "68256899072", "-101738258432", "235081744384", "192556220416", "4180878336", "-125799628800", "-111197667328", "-12133791744", "205967409152", "-193917239296", "197479858176", "-19529029632", "-119524327424", "-67358015488", "-185156894720", "140701548544", "172337004544", "193135689728", "220072787968", "1960858752", "-184252579840", "200070840320", "26297047040", "-171151376384", "-123642667008", "103699398656", "-44348551168", "-147343687680", "157217341440", "-233989210112", "-178156109824", "66230816768", "45151338496", "-150501228544", "11543705600", "127743942656", "-119084163072", "172246319104", "-1779168896", "-138983047168", "-117077991424", "32680675328", "138166206464", "-11905565696", "94960017408", "204353175552", "-185123078144", "170836672512", "217244631040", "215572283392", "-205990068224", "-56882618368", "-239463776256", "-70443720704", "-65453395968", "-107586707456", "-164413194240", "184922144768", "-38766235648", "-66491351040", "156749135872", "29558018048", "123257683968", "-5051627520", "-99997163520", "-226674376704", "-31389564928", "-169436102656", "-239888924672", "51067514880", "108620447744", "-123497136128", "-133672058880", "233010462720", "116457447424", "-37600501760", "35524444160", "-102024478720", "167314014208", "183041638400", "31111583744", "-40065466368", "-37625507840", "2033501824", "11377146880", "16153428992", "158038327296", "-111849340928", "146000936960", "85010694144", "-40202067968", "34434572288", "23259582464", "36226166784", "80697507840", "-190419009536", "-157053124608", "193099120640", "152000151552", "-69758500864", "-27718305792", "172954927104", "-14813222912", "-81616297984", "-81144963072", "45042827264", "55877255168", "-14262022144", "-217595101184", "104340865024", "-47233998848", "187234467840", "1448214016", "38420840448", "70938501120", "12914576384", "-35014422528", "191998312448", "-104348917760", "-152898748416", "168880947200", "203859558400", "131208372224", "52853866496", "2588659456", "230359384064", "-162040791040", "-202584686592", "-213977726976", "150631350272", "-45528887296", "197517115392", "159589629952", "8206590976", "-100869308416", "165097668608", "225790967808", "90591150080", "65592750080", "-237856997376", "60279472128", "222359339008", "-74504224768", "34081474560", "-135773421568", "-202564009984", "-138091986944", "109386129408", "220913631232", "-191458246656", "237169967104", "201873948672", "-141085868032", "195826122752", "188438364160", "-123065434112", "72771829760", "-36967964672", "171929845760", "56963903488", "83030622208", "27735576576", "-203047452672", "190839898112", "-99568156672", "-223590842368", "-184821219328", "235163844608", "113910988800", "-110931124224", "-214121168896", "-237949861888", "126954348544", "-170043228160", "159797084160", "150164684800", "125700685824", "213458763776", "18073868288", "27548264448", "38672990208", "-209770807296", "-166663487488", "-21728276480", "-102029811712", "224718536704", "120249188352", "5834541056", "-11222797312", "-66442137600", "-85207138304", "-241744396288", "225742962688", "-115618750464", "186425344000", "224289259520", "137731375104", "32117035008", "-124049522688", "237568737280", "29630922752", "-38118785024", "186747420672", "177914429440", "84462125056", "244317028352", "-179339771904", "25407981568", "213808726016", "-218311901184", "2052947840", "160107364352", "-80738189312", "-138495574016", "-232961720320", "-206988967936", "93550960640", "-32360882176", "166339772416", "191551799296", "181542715392", "-156587147264", "124097994752", "-48781901824", "72383954944", "21843210240", "153928941568", "-93239083008", "-107729420288", "50989809664", "158928044032", "209647468544", "-97485660160", "-209963974656", "-100679770112", "-11919978496", "184547590144", "92689489920", "-89756016640", "47049670656", "-192494977024", "-182874324992", "-85819752448", "15220477952", "-27653978112", "83333898240", "182468345856", "154489241600", "241660608512", "151767711744", "-231721959424", "159856115712", "186156531712", "9401036800", "-231665385472", "-96416931840", "87417257984", "111243796480", "-3660095232", "148305035264", "118662758400", "-127629099008", "-223714344960", "-69577228288", "35721109504", "-71256981504", "166827868160", "-171734564864", "160440762368", "55614095360", "-146410668032", "50897141760", "184509562880", "-167074267136", "-92028616704", "-154379485184", "106549813248", "-219208712192", "205429407744", "-231614939136", "-210813599744", "-231133249536", "217130221568", "-117088731136", "-194289664000", "135286177792", "175727378432", "182687776768", "172772425728", "187219722240", "-214365011968", "-174889910272", "190684839936", "-222967169024", "-144498393088", "206355382272", "78278754304", "188672966656", "242728189952", "103291174912", "-237520388096", "183718100992", "165572509696", "163882090496", "-128275603456", "68117184512", "174631223296", "19764377600", "72688050176", "30398861312", "-117527379968", "210870435840", "106791419904", "187622260736", "-52182614016", "139355439104", "-96173645824", "76863963136", "-37953810432", "-210138595328", "149698494464", "152800706560", "40418840576", "74138599424", "-130881052672", "-206547550208", "-96539295744", "147471826944", "95821996032", "-132075470848", "47953141760", "80416653312", "-161074397184", "-163245768704", "-222524227584", "218018643968", "-237866303488", "-136337203200", "-217367429120", "-137062965248", "-13777942528", "212145045504", "-150814965760", "-188131000320", "111141158912", "-70855614464", "86375063552", "108098568192", "195205169152", "-82815475712", "-24986509312", "-74791419904", "153356926976", "38124060672", "-17285888000", "-68801929216", "101834104832", "-178816188416", "-201495576576", "46995775488", "-81905778688", "32714661888", "70058328064", "66194309120", "-13745371136", "138982326272", "-224640106496", "-145325637632", "-61854781440", "68184354816", "222706991104", "224463732736", "-69451620352", "-181743976448", "19517831168", "-238635417600", "41284259840", "74456473600", "107969503232", "136260378624", "-20341041152", "53187346432", "-92940763136", "-218893746176", "220956295168", "161987444736", "-25249290240", "121967550464", "191922159616", "138878861312", "216271011840", "195062628352", "108870049792", "-76116721664", "-175078473728", "142824816640", "-2710164992", "-35516145664", "-154204995584", "-200451866624", "98371731456", "-64245858304", "207745826816", "10742584320", "77771186176", "-151559307264", "-215237640192", "131437617152", "147997556736", "-216141922304", "-139295490048", "53941817344", "-24033800192", "-193247985664", "-56059944960", "-1542244352", "-118484647936", "-167214661632", "-142662877184", "40950444032", "-218785251328", "-52089434112", "-134325977088", "-92476891136", "-90613112832", "-239479881728", "-202389291008", "-184305909760", "119800782848", "-181491105792", "-100157767680", "72533721088", "27851655168", "10516807680", "-3084965376", "153375653888", "173940228096", "166013206528", "-161747255296", "-34267811840", "125900939264", "-243352715264", "-166232506368", "-161529446400", "164270047232", "-91739594752", "-239439298560", "-115468238848", "-241965170688", "193995046912", "-186751942656", "75787010048", "-38474645504", "-58392813568", "-153311363072", "-163592896512", "-234197106688", "109480263680", "206659633152", "-17039358976", "-57791500288", "214726377472", "-65296887808", "175536947200", "181089943552", "30420983808", "160870825984", "229716590592", "-104796995584", "14188176384", "119876747264", "232205500416", "-10904332288", "48345014272", "166500614144", "-85639897088", "-12502873088", "222616977408", "109715259392", "20671887360", "-161936162816", "-231447265280", "-217666469888", "144110895104", "156928933888", "-63028588544", "128716947456", "189897408512", "-217450266624", "35813732352", "-228430774272", "82941632512", "75836497920", "-12461766656", "68057886720", "-33894881280", "-146224447488", "155515699200", "136177377280", "-109353484288", "-37118492672", "-20832055296", "-177043980288", "-30566502400", "49704751104", "-136851120128", "73928876032", "36874567680", "138895966208", "180835434496", "-197782372352", "191354519552", "44532908032", "-91883659264", "-123809595392", "-124900450304", "168905981952", "91962974208", "-12429480960", "110401650688", "-178315296768", "-190208917504", "-188632547328", "-113257439232", "-213918679040", "-66476105728", "-228300947456", "32082006016", "-14463618048", "41740668928", "-151404118016", "96248045568", "-48554778624", "-121721298944", "-68372369408", "-240435249152", "-132877049856", "77596590080", "68866326528", "66742583296", "-51428601856", "-172933939200", "13343736832", "127419727872", "-87903961088", "-53331283968", "155333001216", "-25088622592", "177404182528", "10643646464", "12969329664", "-201101492224", "1161873280", "54960087040", "233568026624", "-41496158208", "-101127102464", "-234541727744", "201968680960", "3806471936", "-8246540800", "-212370964480", "172133433344", "-100057899008", "-100083662848", "184148148224", "-43649794048", "48622534656", "59145347072", "167874117632", "106274676736", "77700956160", "182809165824", "207320252416", "193593933824", "-111344246784", "-82023915520", "100270497792", "175960293376", "93709099008", "62075183104", "-230608699392", "132334452736", "-74684276736", "-7951796224", "-160746831872", "122262552576", "165651988480", "198919602176", "30755444736", "145040850944", "-135533273088", "197994119168", "-57046487040", "187830943744", "-34923495424", "-20881876992", "-136903639040", "173797326848", "193591377920", "151320018944", "103453114368", "-133897240576", "232810037248", "-100294541312", "-78948433920", "88820023296", "-146546786304", "-18488213504", "-121468715008", "-160663420928", "215938514944", "-149724872704", "-65419464704", "-15806466048", "82086576128", "-72489066496", "-88712052736", "-64742146048", "53271130112", "-14132082688", "68282023936", "-242611961856", "223282020352", "100996005888", "197634031616", "-11918231552", "-94190657536", "232939995136", "51714256896", "52482560000", "67098697728", "-84448124928", "-57862402048", "169989423104", "-147457425408", "204043583488", "-192916668416", "179090849792", "-150696935424", "-115467190272", "-775620352", "172472860672", "217871564800", "190386225152", "32190517248", "51827068928", "227415212032", "-36085428224", "79682994176", "101163122688", "168526036992", "128175136768", "-177509957632", "208999596032", "25029763072", "184311070720", "189251076096", "132515700736", "-158343118848", "196857757696", "111211102208", "92721479680", "-44170141696", "218587267072", "235718590464", "83935666176", "-131265429504", "108315131904", "-97742528512", "-2829788928", "-188668379136", "-2087458944", "142751318016", "-145102176256", "181442510848", "-110431207424", "66283151360", "-221127147520", "222057005056", "-151589519360", "-137109159936", "-94870028288", "81457954816", "61772005376", "-33046095872", "48411770880", "-150677258240", "-218402897920", "-47741501440", "129444167680", "-133594554368", "190734188544", "112088219648", "26510551040", "103860068352", "59255762944", "-109787119616", "-193122959360", "-187341012992", "170507288576", "-203238014976", "-197115904000", "15139594240", "-174405156864", "-104462696448", "243126468608", "50709528576", "223800131584", "-118614507520", "166127124480", "-183060856832", "-237194149888", "225806909440", "208811393024", "-25250807808", "-183359520768", "-222435213312", "-6028026368", "-171807735808", "-153546653696", "139745525760", "-39256735744", "179306102784", "112944529408", "-108455239680", "198954811392", "-141157515264", "-81675337728", "196462231552", "-69080408064", "50452725760", "80436903936", "-198001246208", "101657788416", "-129948672000", "11262908416", "176819847168", "229168431104", "-97351860224", "55940374528", "8851513344", "151220551680", "38926319616", "115461300224", "-17998352384", "110561918976", "218066436096", "79900008448", "-97497866240", "-103271276544", "-103920803840", "39148048384", "49978806272", "-154425622528", "236470616064", "-44015079424", "47982977024", "161313783808", "41423572992", "47830327296", "-120274190336", "-21355673600", "110208999424", "109927907328", "-50606043136", "173839073280", "-102445137920", "-38305284096", "-178497961984", "-55363969024", "241981456384", "-32924264448", "231222640640", "111243681792", "131968868352", "-155552514048", "-123621523456", "-227945119744", "26258900992", "-17020553216", "-213058568192", "-149497692160", "119435681792", "-138005561344", "207614820352", "146073567232", "169072246784", "-45016154112", "100236730368", "239444393984", "-10341137408", "185726074880", "-175814361088", "7069146112", "75585675264", "114780266496", "194515992576", "-8815720448", "-26369169408", "78589206528", "100391403520", "201213460480", "-186058489856", "-111321358336", "-75787755520", "-109285859328", "171582619648", "157236723712", "236943196160", "-225601667072", "113614733312", "-206701035520", "-84133339136", "405990944", "38286790656", "17140969472", "-95427166208", "7182511104", "32183095296", "225000046592", "-53534887936", "-12694796288", "178940526592", "114745352192", "-72522711040", "34317199360", "160394657792", "-6158603264", "-89962897408", "233240182784", "-111998926848", "136296734720", "-2438217472", "-75338555392", "123503255552", "-192730775552", "23097198592", "89785376768", "24835723264", "79626559488", "-70656049152", "-105328541696", "-156604137472", "-167066157056", "-227163602944", "-63900573696", "12362939392", "-158070931456", "-243883458560", "238564556800", "-131719086080", "30649952256", "207777005568", "-241508106240", "80046612480", "151431430144", "166568345600", "-7183739392", "22548750336", "-227797827584", "230007996416", "21714671616", "139265015808", "-66048188416", "-43462123520", "181981741056", "-37429792768", "235963793408", "234692083712", "223317196800", "2025140864", "-73465004032", "219888369664", "-7039815168", "-243850461184", "-75035852800", "86808190976", "203829723136", "-73744203776", "-81939832832", "40334118912", "12104049664", "163720740864", "111325544448", "-189162340352", "7521256960", "31213088768", "144659316736", "-238376058880", "160282836992", "-241272717312", "211884359680", "194461597696", "59944435712", "110243217408", "191520620544", "-185669369856", "196191895552", "-122361192448", "236691783680", 