{"dense_weights": ["43418546214", "302702444027", "316644509827", "-156426126850", "40374302408", "8877125705", "-32941548985", "-44011689302", "-314862891710", "-114479121726", "-16111944010", "-245433007716", "-285970650945", "-74773608158", "-93080349204", "-120829241527", "-131038441844", "240744897114", "28492534200", "-103943608485", "-43214139978", "85705372925", "-97068735380", "239012221407", "148037063329", "240890694590", "126371615485", "185909644909", "223363412293", "-100262104283", "-7611557129", "70315548273", "-202753889031", "-280279930013", "-121498369146", "264995140536", "-119378190184", "-328567803950", "-61470857913", "314562349549", "208639985032", "51545571098", "-200148091789", "163177950673", "65524896276", "73679795144", "-128214501067", "-130883599762", "343654116267", "189206732711", "61179566699", "-235572239533", "140529319038", "-128132801985", "97744392307", "209033847961", "96276139593", "188194659531", "-30898508718", "227891621930", "-95560077460", "-113936297227", "-31615894684", "-219902357112", "-218258818158", "-126798342436", "-203902422092", "-225096312918", "-237096534120", "-202492058879", "-149019419616", "109519305803", "112694051201", "-40958531699", "37369376339", "-157281336260", "-40698687308", "84241324863", "-3533511910", "-101934604601", "-10466827466", "-64699913585", "205266928184", "-159913429623", "232978246259", "42119108804", "223068963164", "226142843617", "23547057187", "99057756063", "242661937513", "213937828005", "149530667597", "-82105785566", "-170583340580", "233948318063", "222099383911", "-76237673964", "11260110991", "250575782409", "-237945981619", "81687956245", "218901628557", "11631998799", "-108382456186", "-249722915541", "-6062609340", "67952096123", "234411205303", "17259175209", "130614928603", "127553854731", "-215492202126", "-218967078238", "-22041981741", "144714810844", "-211652164861", "209924703215", "9049015773", "-44540855583", "221075844034", "43310324742", "170889525708", "11742898306", "145490142389", "39756822557", "234984123900", "86087741018", "-163633503705", "249153882990", "211969848192", "115545985397", "-105859094596", "-115226657889", "-124707350376", "41944664873", "-107094266569", "-141452434483", "171185864148", "205201442949", "-168032285181", "-224328043892", "82488524572", "51982779353", "-90222695086", "29340951389", "-38300600379", "-94549339738", "-99121379502", "12702525740", "-47644036835", "175295905778", "239365728258", "-253755797712", "33196685297", "-111485493034", "208221786593", "138188689399", "14526480810", "-141997427148", "146489940339", "-138898792566", "-51815167876", "105626168659", "126828292145", "191548965686", "31144479442", "88117838849", "-252175768971", "8519620498", "-42379015417", "-204076348154", "247080751647", "114565102686", "-95492369759", "29287792107", "238051592459", "-107670181428", "106282950066", "219715387425", "5447242968", "-147552217146", "85880994544", "109529049607", "20384271606", "4230181722", "107734493775", "-194782521103", "-93924694505", "-157855368830", "-3604325148", "536940482", "232445179833", "142996555151", "59643419872", "205848481485", "-111223765576", "126088293028", "36783316468", "-229514076486", "224366745373", "160483075610", "-207251220753", "-200238883294", "184769205433", "181184675829", "-234141602429", "-89479780834", "78747434769", "98871869580", "152642890655", "-241382495215", "189736407218", "-113980404258", "-140219257231", "-50143153402", "211891998375", "230548341657", "210687621093", "243368411914", "-81132649807", "24355908474", "185169909225", "80681062470", "-230571229028", "113214567525", "-129728474037", "-68710066217", "-238364275545", "246050490939", "-89434041625", "176406039254", "50453214528", "-204407009477", "-40321117444", "177444470654", "-237658823836", "-98678363603", "7885088624", "45807662614", "-138360474733", "-194877727599", "156706731819", "190463974407", "159026344062", "96958239046", "210121574675", "102231002197", "-76783818870", "-164788672634", "-96024646144", "186904379713", "-4978230441", "-226402515240", "-22752866479", "-190588158231", "-196454308041", "-130358496135", "-233835125431", "75497868517", "93437667926", "-189912051466", "239863859016", "199431056530", "-141825318416", "243133711407", "-74029399979", "133034644927", "-94554843149", "-32148283203", "3059887427", "-183266613261", "-111871266057", "-42871361602", "-60675991678", "174935576128", "-13234281573", "42982095018", "214643079273", "-196840473531", "242504225630", "35303633661", "7494696784", "-75443605272", "86195029356", "199910257570", "-192773280285", "190041930692", "941844447", "229979765638", "-99599084216", "82639968844", "-38579664930", "-233060561989", "-68646575774", "-91410473205", "-49717061406", "97888280429", "-172466694900", "60737352092", "-244266282706", "229805990723", "-226146213895", "165679360114", "227236529219", "24993519635", "-87575230410", "-217761352184", "125189768440", "225120736994", "-233291519151", "-137700255129", "148623080490", "-166034067742", "-71079593953", "-14963638072", "167957598311", "-86651860703", "192176502292", "-131962830719", "126413282685", "101636369718", "250798996388", "58930137006", "23072412526", "207162044581", "-142808296968", "-81801199622", "1591021451", "-157421272466", "105222206915", "-215903588921", "197865478378", "171869178378", "-90212145332", "-2553779052", "-207072735434", "-190118371728", "195895324996", "230618936184", "-232774471371", "-118245470235", "221288345642", "-32926357897", "230029998231", "-133478975498", "228940855197", "-101903621982", "-162435387220", "-148211045148", "252660699473", "85534608492", "103773346405", "-121012285520", "137728552077", "107482436194", "99515790909", "53086342591", "-84697979516", "-176024772243", "-263464035989", "-123001620589", "-82483304397", "-189469501795", "-123798684550", "-203619549210", "73188078174", "44203474947", "243747517262", "263003554557", "-199418658987", "-156434035623", "83816836403", "236385651923", "-54372940816", "252769214782", "36323656301", "193409342123", "-157974685557", "-219101968381", "19861328715", "169090675094", "-203959252484", "-222617429660", "154408877380", "-66202532503", "243204081872", "14170815302", "-184474677646", "293222640927", "221180166615", "-233703601835", "-219018006282", "-298733592845", "-9547665808", "-46923390273", "252755457989", "142674333755", "83243797939", "-124444588091", "200866279727", "-55407926633", "-84129774963", "179650854895", "195155820754", "-192664937083", "-86616748141", "-196704453932", "-196553673045", "54513567696", "57191259818", "-45969720304", "221472624023", "127555080274", "-52819794118", "237421516074", "-12392210044", "263956464534", "158343145394", "-213456714775", "232497605687", "217081963911", "-80147858867", "-92045892950", "162945088331", "52531993209", "-134133858062", "79028671105", "53492316743", "209647311659", "-39673012088", "-186798014666", "167924142255", "164725584223", "-90130400209", "-224769231574", "-163341763299", "48984827155", "-199769064509", "208372275122", "-86285546031", "78995658312", "188540609269", "-267872110117", "194878698431", "53858590641", "37708869012", "49353268139", "136032332123", "-137127456933", "128275198025", "-98786282895", "16659913403", "-116604772658", "150586807683", "-100705323316", "-208613919487", "137870074619", "-208464746316", "-95541071993", "-148153861215", "-232309784427", "-12591551782", "-219802440937", "148143865462", "-253632851940", "-131627661970", "160499199564", "-210486951886", "-121393149243", "-224366835632", "-232332983590", "-142407764579", "155229507957", "90101812624", "53687312133", "108610126070", "134052225099", "-177992603571", "57292984152", "-75694922880", "102207048160", "-10492423296", "-206198903520", "39019989418", "-253936464176", "-41899347316", "-11947593536", "240082685389", "100022846011", "-187462105466", "176475646681", "172227052486", "-102601607714", "136681711324", "54453979717", "172787092642", "223121285888", "-144960871976", "-130240334883", "164067547727", "-134407166760", "-220163120022", "-104369763977", "56357868999", "237020373935", "96595855709", "-63733837480", "-72309902636", "203093488135", "-205317805538", "-267441815062", "-41746020137", "70635942862", "87580237338", "150469052236", "32612538334", "-177833641465", "158424030147", "195305770130", "39078967957", "-144670965681", "146950298270", "-32014630785", "-252308273076", "257822246943", "-182216005906", "189341068340", "125692461850", "230221714078", "-212008888755", "252552038623", "-149580332343", "-175417833447", "25386557404", "71780101350", "252579794123", "-244621877940", "202800631515", "218703368696", "179435841322", "-60199655584", "-93708212389", "165996770767", "128581210801", "12818552374", "118965681183", "-109483747920", "179462957718", "-240521377340", "-71191374121", "-18906088182", "61177958295", "166514268939", "-49449154183", "90153052134", "6204909666", "231669867224", "-4900870834", "190958872905", "-73168263984", "141865054131", "214203402913", "-6083285320", "-111536869912", "170455909956", "-169141666669", "18029271487", "-216260457954", "174111531253", "-148702852186", "-185975131662", "152940226660", "-130466490573", "180806512223", "60564098510", "-236293082959", "253742586330", "110095079768", "227578078822", "-34096885580", "-183066940723", "-26877661442", "-208661235621", "-17898365598", "75682571270", "-101244535088", "47487702757", "86400498841", "227605778004", "-117292057657", "49341868898", "173581726826", "30651333626", "-61296071746", "25955383263", "-195691103180", "29374196550", "-228491692321", "66448779327", "-50670871601", "63672966668", "85019645077", "-27096784324", "-156399392207", "-80301445621", "61381955387", "148576128457", "44354154901", "221929765583", "252418630576", "224281108288", "-67405302607", "2379425451", "-205926831290", "-64617589339", "121259972502", "-206265655040", "-220262282807", "98324248391", "-13750702227", "-159053884320", "-13686615140", "-28443752703", "17902348553", "101077685455", "-146976396303", "-178778659808", "130354319000", "98874771425", "194186566467", "-134691588169", "65185650631", "-96842380567", "20959756845", "-55263725890", "206018450289", "156167041365", "-193522922714", "-155711866044", "121627536301", "-116213318010", "228555342329", "-90659180828", "-18673308158", "79418891923", "6258362521", "-207981513268", "11243150467", "76832022337", "9513752222", "-189516294496", "-242378357624", "3248222630", "54475431072", "-16828994861", "-73000594171", "17068547647", "-54541622008", "-133135739273", "113793678598", "123505106734", "141076093801", "50969899383", "-225078020476", "166688824407", "-61125526439", "-7211523390", "128604703904", "-168392986490", "38654883303", "-93737172918", "-66142998919", "126932665643", "11226412527", "4095759498", "-35937953905", "-122442186983", "-179306756164", "231356728413", "203713784881", "-20556538699", "-158109669997", "-186830222991", "199837457899", "79026441485", "-237441548083", "-130792548384", "-99399232003", "-211331757336", "-99910334226", "22911522862", "-48250244829", "-203948601743", "-22179821607", "99416649242", "-176839048218", "40610657511", "-76058896191", "-88558198694", "-182864118913", "294443290923", "220611032390", "-156303033036", "-133597778277", "147659085446", "193314878748", "-175278001475", "132707454809", "131581162695", "-72760734200", "-221192409959", "21219839606", "197369878318", "131570819025", "-84865901680", "171524236653", "303960586452", "-38158829919", "103537573157", "-23750728206", "65128919857", "229994083984", "-101500443752", "173108597554", "57326958050", "76437766463", "250649743055", "134452917957", "-210139994436", "-179560900068", "-212216358644", "-153333994676", "112412940070", "66000449282", "115320316570", "-181625941254", "102277830551", "16198593372", "299363306796", "218967175083", "-47307764530", "124071765188", "-273791178360", "-21388231821", "-12177830118", "-156862464836", "-206771016517", "113094595615", "-46424545867", "-227130129245", "-68664798950", "-19754246644", "143318366288", "177470817174", "-176123047371", "107994709597", "-186066011164", "-171544602885", "-201329906095", "-189408225490", "71905521238", "50135173078", "-258773897096", "138653809000", "-144026405608", "-43142630364", "101703172254", "140372862788", "-139436312271", "-72495551994", "104899153437", "146843787898", "140812981971", "-186340930893", "-126899332379", "226185461972", "-58533601942", "-136973798003", "228491823129", "-9612469636", "-50329937271", "8620576587", "-47311973624", "37988932531", "-138266266271", "-162565804102", "-91036846758", "-68220657822", "212808252195", "230474381879", "73526873998", "-164928617244", "-190375905337", "170902867552", "86068296508", "240401912185", "-12071127092", "190030696770", "90880904306", "12101255675", "-111552055672", "-187604212527", "-45649944196", "171056692513", "121790686536", "24808425386", "245025955836", "-165636357703", "-253474364683", "149918401003", "-51875869492", "-80219658758", "127695033450", "-171510531842", "166810843999", "-8276120612", "-65098363828", "146543664564", "148978583638", "144662027762", "194297813533", "85033902459", "-250080036037", "-229249001131", "-226408969056", "68865011829", "225795290248", "-10654405123", "153264538226", "-91145135366", "153511538887", "-183176705517", "-81054990817", "226051323869", "53748434743", "-23671878470", "207442653930", "-106196431521", "241447173927", "31598457260", "-231441523129", "238731726444", "38962900943", "-109040384838", "-93229773477", "35249703621", "106133473754", "-212237210962", "-235525662931", "-148299810763", "-97960480247", "126094419729", "-210149028097", "58931515676", "-208986242391", "26814421900", "-79266821779", "16159812946", "55922812666", "-158432196096", "-238104517409", "137985618119", "15146575556", "-33822865338", "-84111958142", "239018034504", "-48025191852", "-210638429243", "-107085054242", "-219680186467", "197338969610", "135686858460", "-104218991743", "14731770226", "105068058938", "-17717724748", "-30378738277", "-145241414069", "-86033309930", "-231808558628", "15479740805", "-87378477464", "230073197681", "74798707065", "-101900878499", "-210157427913", "57204279286", "-38608178387", "-56809263092", "131909912310", "241316473399", "-119564252901", "-73395227308", "104122683444", "219271700766", "-161594032199", "-105456887906", "-19124265156", "-35486196978", "-27919195577", "-228953214707", "28223882253", "-204626144771", "154852154143", "100476023977", "74542811252", "-5059178722", "145941916018", "107605697825", "213496975210", "56239893794", "-58729199156", "90948182781", "-219905982027", "227047621716", "151066734340", "257053830813", "197383940361", "-3815279529", "115036593222", "-93603803160", "-121774093782", "100000333542", "-221164990112", "-204256609195", "-164973767303", "-222636659413", "-3484843643", "183628643580", "244331297879", "77357117318", "169999365941", "203497299519", "136327925780", "90410379903", "-157169847491", "185950330488", "119126336806", "272408761864", "-152444388689", "106116852750", "126425614341", "164281283136", "-120442802778", "-35398709845", "-70432834520", "-234995190826", "-5609556821", "-15788983965", "250807868973", "-207975107922", "109907314985", "-28913289723", "138341735756", "-188691697396", "39364668416", "-25934736325", "-216500340096", "56116722456", "-201994222450", "79141843448", "39995002139", "-89123568135", "-140819739039", "-127975580941", "-162891538246", "254982671601", "-202820732806", "-352848721", "41350390947", "108237146397", "-25935660343", "-145975309876", "-276979886060", "-65525500554", "-106652524942", "77501520273", "77449946380", "118441033830", "-12659030591", "-247531616153", "-991162157", "36185576371", "-223170743437", "170044823556", "100779355064", "192182780550", "208095271430", "239578062930", "-17771291741", "-62849946227", "68844521736", "15372624081", "-198388405989", "226971286302", "-107213189006", "-111195414678", "-72437466856", "160945652816", "179034721478", "-162000456345", "-48694656818", "186049698877", "107188736011", "-156040509426", "150950860995", "41760307043", "148445783375", "-8850076153", "-142251728608", "203806745415", "127474994489", "-3313727500", "96021124629", "102009886827", "-84500339732", "-106485593952", "85412167316", "186458643616", "108976473302", "-129376401568", "-150683329765", "-147147764644", "244624291969", "68390515962", "136925946479", "141064056959", "-47023520619", "235706964298", "-186837377835", "-154138214130", "149485285111", "-229683426638", "-213565548965", "-247491568041", "-73382506597", "-149185473924", "654070346", "19903095045", "-1854926681", "-74696646382", "248773882416", "-183250751309", "-176865776079", "175616384447", "130077118654", "-250861490271", "24180703816", "-189847953772", "184089698229", "141323906492", "79063865290", "194104983979", "152552398731", "523375596", "-283070787228", "-111171850670", "202166712226", "184974239859", "241049409265", "142618082655", "-119951156450", "245395103865", "-29672688947", "185387965455", "101181836617", "59444550593", "-32164348655", "92196296764", "138388057628", "-130583008530", "116126905737", "146714652020", "-138337899108", "-54638647822", "-129564701502", "70350599177", "160562910739", "-3710370611", "-121056572853", "-239007022671", "111851961764", "-7295443201", "-170861835188", "-228539502727", "148737552524", "208279094238", "-191270059336", "205508699173", "152090859113", "261345461023", "-220288840341", "207916432280", "-209715257758", "82217532227", "-179262759848", "168592073993", "-56358260407", "249138436069", "145967752706", "76336648055", "-155346980199", "-122345041154", "-85700969148", "93233976481", "111642189314", "79073111191", "-45029519042", "-146259583299", "188788416975", "-271940454793", "-75309401350", "-250398472698", "16147753242", "30184866516", "219311622246", "-178664600356", "45443258173", "243062627714", "-71925842674", "132747232711", "248517280726", "24232604144", "-99625011547", "-17806904937", "-48763266736", "-104703180454", "86576483028", "181843270257", "54744408104", "1342037135", "-209875022294", "-50921336445", "-242852100675", "224304260384", "-153870646467", "-117155813087", "-149391328988", "196085610978", "160022588708", "-208721347663", "233162505267", "-76011264783", "-153619965438", "69743153978", "-153443730001", "-4365016358", "-130578839598", "27873567207", "37756741087", "-102751125024", "86310294713", "-142410699324", "-138551514206", "-67487952571", "168500843063", "124420084540", "87660803509", "-49122544688", "-196944967350", "3366393606", "48304059601", "97982411517", "80847106643", "-115638294670", "-70560901710", "244689652315", "101821258476", "92563240777", "-114845696675", "-130425855719", "243928247711", "-215613533813", "170825635645", "-29301920234", "-20907359063", "-220666108798", "-215775107532", "61116818292", "171885775941", "131479621062", "-251930333694", "125797657738", "133733013884", "-35760171259", "-237173471916", "149014602256", "-68180769089", "159795693135", "67804747084", "43482477736", "26052370384", "-77954853278", "122682055888", "206639546383", "196032038888", "187628493442", "187554484836", "-93101299063", "129762694782", "-224013000571", "-54641616212", "90359444539", "141328134522", "121646332593", "-54206499154", "55793513049", "-157515214068", "33409488490", "-242453932616", "-149000819129", "32257467153", "39896600692", "56027794254", "223704917779", "-209127386383", "-138022785555", "208529902830", "164436444934", "-18107038065", "-5488213228", "-126140534637", "227345084324", "157199930701", "276524967720", "202288975547", "154580825035", "192507779379", "165862228344", "-220683872723", "-188203676519", "-261789999306", "-80996197441", "-49722985376", "111701501406", "-111379420996", "160595035588", "-71494776547", "210691380189", "-229825716713", "-145851817830", "174720957676", "-14614970236", "-194486088350", "-59165236350", "176147815391", "-66820179363", "141663127142", "-222126933688", "-61093564952", "85753395405", "-210700540870", "233705665860", "-178321643017", "113493044678", "84305283704", "228404294189", "81439433590", "111526653012", "-213955431526", "89280731007", "-225368689499", "-10857541713", "236573537431", "52512222666", "77647067724", "-106877082545", "-70996175765", "59246209431", "-67423163272", "-160821051375", "-193023320944", "-109149231962", "-245690932210", "137690298341", "-52762677660", "157705641441", "250874393365", "-243969694922", "-19558085760", "-178406393967", "187056064772", "-168278541191", "64510365979", "-41997944165", "54362264231", "-218444561486", "-227551055308", "180187395384", "-90675029346", "-140236933817", "-173221658", "-152797846939", "-98625190438", "67468140447", "206618854752", "-133545310205", "-22193309795", "28663991674", "-168880931647", "31795950098", "101086653926", "-157554737191", "70369005769", "-26808535577", "215967334692", "-67111555563", "48840559254", "-90513845168", "154088933360", "181196007937", "247257939943", "196328645592", "48273953136", "191001825136", "3890227793", "100443928142", "-22197514905", "-148409921469", "157968001655", "-212374304445", "105214069477", "-139656472823", "201152854049", "240132386319", "-182593577048", "-180728709100", "233010020667", "187360457250", "115674237700", "232559331400", "-215145302293", "60885341473", "163934090555", "-158132938037", "-229486975389", "204234904790", "-9456169336", "139670978800", "266463824276", "106651253755", "140643429301", "115327342876", "76833826327", "128930578287", "-25918718512", "183180634086", "-189865196863", "61439527116", "-88951315443", "233883351015", "261774742324", "75763343427", "-129299140974", "-221365894258", "140954303325", "-131939355640", "153871475232", "17014375161", "-24033096627", "212748975062", "191888257989", "82144573301", "-36150414234", "-92619555033", "140245576385", "70135252004", "-182387025397", "-110979343071", "34781500560", "-37779185899", "120505853340", "-75186980494", "14569990642", "51842474896", "70331566304", "-3086898695", "116657325520", "236983822134", "-65670021948", "-179912435704", "103635724009", "227663067819", "-203578511835", "210823668506", "-87440999239", "-216048044286", "22489210295", "18230418110", "-98368203142", "-117477648412", "155967367913", "-184562183183", "-219281343096", "153150147437", "-229710364637", "95399733053", "230685813865", "171992066390", "-218715157834", "-34743692846", "-139802846168", "69158456640", "296544974664", "-26838870077", "149386487800", "-123966768407", "174980900464", "45902324313", "8922875501", "184594816233", "-105137123022", "-15759334240", "-18927727453", "-154998305738", "259639693659", "-215640396413", "155003365112", "259264220642", "-21538181834", "106370326878", "-184183436196", "40775986902", "273521537106", "-48853818463", "95177659444", "-154914021698", "-142067709150", "-296519906674", "221302257721", "177838399345", "-3224227530", "11023177253", "-20169349497", "-168841214245", "79560105749", "289503595920", "-66005858338", "-79546381569", "158431415486", "235387833690", "-38161919297", "45223865607", "223839470233", "85457548465", "-109737751557", "130736225900", "94866470037", "325649118760", "-92143748183", "122871160365", "-157252015834", "200056518808", "250495021931", "-116623050852", "-29677921187", "-158395834208", "110548085305", "118600045501", "-151198931200", "165619996004", "48944962256", "115473035470", "157591994335", "13553118296", "-38202658382", "247468212416", "113945457316", "-114069077680", "259538347355", "-288246575227", "-107821711836", "120986192529", "-173883750620", "-104777707313", "255771398028", "308035333504", "-204219601953", "57246605190", "-188153197311", "-100408465402", "75988912998", "220762149187", "-193615506707", "216700282447", "238318806872", "-114261660074", "-96912433258", "270763082266", "-174616328527", "-159076210687", "142575210779", "93809046962", "97908363589", "101573068912", "10770056377", "-42373737890", "-57416502157", "-248636757194", "-174849808236", "79793438861", "214054874610", "242595596238", "-251474461138", "157095722281", "84293774138", "-206994475902", "160282641772", "-21036257236", "68962108048", "-12272099304", "53265841254", "-51003333753", "12313504224", "-98781097045", "275365708105", "-187268506690", "90852775758", "-67600300183", "-108825919823", "-80575694049", "27687673540", "-53497431073", "92100147768", "82582401096", "-108918861629", "205620665528", "-81327853957", "-136940818437", "211232643298", "19177485300", "-152994691011", "-107599812660", "61914231793", "-73203994373", "134339143627", "15730727421", "-163990545808", "135059182970", "-26491159232", "-17323941123", "-49770160214", "-18380115666", "-152120922281", "-248839061201", "8252698220", "103154620504", "-242052530309", "-191927079493", "-201594171615", "40270780121", "244832467433", "208898319979", "-226878211865", "-175926540996", "122696153176", "-241213081952", "53354348133", "-112036224340", "110839206960", "-64086501759", "133114650999", "-180656208480", "209003691830", "-3362523424", "-37275878476", "225419322890", "117197322056", "101065433547", "-33747882359", "-102197667113", "221676641084", "-223424485056", "-97104833887", "-85580013045", "-228186978076", "199657735489", "193217677525", "138386487609", "72353548", "97713572123", "4055070024", "162168876710", "-159893748836", "198823150921", "189099580896", "-73419167034", "172912501494", "53945906825", "15780284206", "-32474978940", "-248301015970", "21326873013", "-150345007414", "-267179004009", "-272622679515", "92330908103", "-71269893571", "46744859380", "-53120014932", "-173564063099", "201651190676", "40043775976", "-179078951732", "-255193555276", "-22768716092", "-188730340993", "-53511665807", "26261066909", "219102842100", "169386438574", "-28842087830", "157985663310", "222208660132", "-79377580652", "190308993027", "259858293566", "151932478325", "-75090878218", "-203972699461", "76507476226", "-68049620388", "184362788735", "-215766812721", "-52225064779", "-205105636334", "-8049361471", "154088760315", "-171698764574", "-143602748882", "-169852439819", "-277426592394", "-201922491564", "101216008534", "-177282251071", "-95256360183", "100580892766", "-155783671333", "-29838837108", "70637154902", "193918300780", "160526658923", "75255904036", "-16430531997", "-119405540278", "-148930013310", "213086935917", "-145344689995", "116244436715", "-208538384097", "230826074212", "199099067133", "-154244936395", "92586947667", "-1457975302", "110060076360", "182439226190", "-208719510639", "195215835706", "-129474906168", "-207007706213", "102942904417", "-189896695277", "67248449165", "274963450660", "-68174117324", "260353457294", "33077879048", "-22474409342", "-58287287093", "-120958118052", "14162268108", "-199972696188", "61439509195", "94459141899", "-5338893814", "199544390668", "142647132628", "23375380708", "89336356665", "-96173485473", "253405454611", "134001585154", "-115381097696", "-81466933413", "-92451787955", "84474166456", "-35461106059", "-124247280090", "-21813840710", "-266090139593", "-182547662393", "-260239547827", "-247249767670", "-125192181019", "27953553112", "117886798225", "-152726808090", "-97716788277", "-57202423406", "89383118819", "12498377161", "-261613001892", "-158253321390", "-126267814445", "-180408568216", "-192171469015", "-299245756081", "-122233754197", "-13398471095", "-257617615702", "256944947932", "-16682777980", "-44171171896", "-90871384051", "-53595374536", "-68945901791", "78304073509", "214721452926", "-143647579952", "-57497501536", "63980282705", "65866933952", "-249143155202", "209918219180", "-169654084166", "122957947768", "75106142739", "144003346410", "163054529800", "219739885282", "109568517626", "197478015089", "-61587831151", "21294968945", "-1387451615", "-193939961303", "-147509227496", "35932911521", "13563351437", "-162847183413", "248126627888", "-189793926358", "-180253465828", "59527225160", "35743066507", "81405613549", "-195072780062", "128353957394", "200639343236", "110499603561", "147012169712", "-220120286837", "-106718889441", "-212032171575", "-38141794022", "22822670954", "273438010606", "-128281981615", "120774407663", "-70464142570", "106386046754", "-118492648680", "37286805142", "-186960426084", "-16426413879", "101786180359", "115227379200", "19173389276", "76280105195", "154824891140", "4422472004", "-213203475804", "196287507022", "-205993333474", "-15376021309", "-7648777149", "106934006877", "-105608524032", "-218553961767", "-220735289117", "173626832254", "321756059327", "55161765329", "211325053491", "19555783809", "90465405764", "7419726319", "42545606373", "81793739303", "-79287799388", "89441839866", "-94278315947", "100063991016", "198800171324", "-131994656720", "-129352643248", "-156032224176", "-137865616577", "-255678141281", "-114687942074", "229258787606", "-1112036138", "180647958248", "-175944402661", "131319476673", "-115942425275", "62531629879", "-190724867420", "-148740817859", "-204723950927", "-230376399091", "266146795822", "-10719009656", "-80315830780", "-28276262221", "131025174030", "245804542627", "-138214955933", "-198850396869", "22401815620", "-83514622410", "-176377014261", "478759480", "-41021509720", "-28604572934", "213444589836", "215650604608", "-100933860404", "-169811812465", "212917256143", "-153783602050", "-143302071228", "-97769230053", "-152661895836", "-282007824408", "103925336183", "168446254114", "-219166642402", "-25678579287", "-206067510689", "7258166827", "250156682887", "51217605708", "224306273073", "199286456779", "-43922287717", "108613327056", "-181376621178", "-107669315599", "62892827952", "169648536084", "117965737744", "-104372393401", "146146128680", "-275745023647", "-74718717673", "-194798854204", "-170892622235", "-267769426398", "252159775122", "154583847564", "-179582620489", "137727509249", "-148192207989", "17286361090", "104909383026", "72792336546", "17198814823", "-33775021704", "258658189871", "-162250066972", "-75730704236", "-240798695301", "144168663913", "9005234333", "197377750778", "53312253453", "-227408722327", "8043845651", "199988904661", "71394750098", "-166019224496", "-259183622959", "137624838973", "197871229130", "1281232070", "285578691268", "168747583322", "-99650360131", "296464386747", "-30316925639", "228102422204", "-136657179930", "50734441144", "27672689117", "214761824544", "-129290239825", "-198699389322", "-70518879795", "-202511922403", "-204135257509", "-261364548954", "-137115636010", "10873193227", "132196099267", "-41683475874", "-198860100214", "166500617903", "-29879885502", "230663067234", "25236782388", "252067602810", "-145587599522", "-83047325932", "73355860427", "-48088003059", "-210013467028", "260108738392", "-126259211108", "-25435002323", "46865475428", "229566117752", "-185142014070", "172854161168", "-218750161343", "204487921647", "-35130852441", "124767045358", "-216812098415", "157091948952", "181159793422", "-150547374588", "197143747948", "4909432140", "-216041351603", "180693727360", "-270209077176", "155574636206", "1234735965", "-76382738517", "26821081872", "262139222573", "112481308825", "248492123416", "169834579880", "-187814851310", "94087971583", "178621425729", "-122365672975", "-111302143789", "-67224493854", "80652916827", "-267681301193", "76562688795", "-56724723518", "-152129552145", "67319886862", "38806324934", "218721663101", "128607390590", "81445464673", "-204130841482", "-81598972342", "-58843871980", "44807915689", "54419279060", "-219405438585", "22288880683", "170468217729", "57924982225", "-44318085256", "227466808032", "67576328120", "90208074967", "-147936912681", "-157483545308", "120971658380", "310255983", "-180290697431", "-271653031128", "139122917766", "38181351045", "38341889919", "-35311196178", "110262049670", "33163103580", "62215608902", "-128523309961", "-174254883650", "-167721651101", "-91108070554", "-167018810935", "-147470235894", "145610725371", "169338914206", "-168604503135", "-86509174362", "230607925093", "62776353005", "75009719767", "6210397443", "-159371857437", "-16623463330", "-79296008990", "162187380892", "138118458237", "-75146069489", "-65847585267", "4909620041", "-42944848164", "-265566496463", "-164168548069", "110448303018", "-197987342673", "-167729952986", "-128925620133", "141115283359", "154944075044", "-99202805202", "106405815400", "117078951361", "57190754874", "115616966978", "-105566449312", "-90681154169", "-182615843249", "47330576765", "141259886264", "17859872588", "-32997588640", "180910254821", "-122391312060", "200872305224", "162262754811", "-304727546764", "-108018830233", "258320947747", "117515560626", "-123502778530", "-118731326560", "43337022474", "-198375886263", "-63565280210", "109681968047", "-259326419746", "156880581734", "-183826736273", "92736903076", "-24323659175", "4201405683", "-166837329236", "92703235771", "208507058504", "-202070884328", "-15819911275", "-113690292074", "-65465134433", "-13755352876", "223827835731", "-16598491511", "216250892283", "-70294737257", "56203959533", "107355190294", "180744485542", "77422970858", "-107834877238", "31280859350", "-205038438367", "-228970809119", "-21023251207", "217923589641", "-183731610779", "224908639392", "16131588299", "97694521311", "-115153533074", "-204486663786", "158820248078", "117083318158", "-92235921334", "140462171007", "42398674451", "-108169716327", "57665240945", "-126434044034", "19561953866", "-127648361646", "252734060924", "-206627184411", "-170201148731", "-60807839660", "-17761721502", "142394805430", "219033737538", "180540363704", "-69378645719", "-57220652357"], "dense_bias": ["-32505615974", "5080565039", "3965922923", "-6308562729", "42861777274", "19763328548", "-62852754609", "-26579902285", "42033069557", "-24376931637", "34153892872", "38299224460", "38107448895", "61334661568", "-21423901329", "-31793706653", "21841824870", "-3679569347", "6580782256", "16387176474", "33456651530", "28877075637", "-45131493741", "23331217505", "14130952608", "23634745634", "-11586262331", "-1985202558", "-5326891447", "-57569445257", "-323134495", "2078196269", "63701637274", "68181538575", "32311995027", "-28787714011", "-64711192319", "33128454142", "83503392873", "-12488829953", "-42819900918", "30758282061", "-6864409103", "83692208295", "-5124971071", "32755091956", "-48233235017", "-11634063141", "-23436390160", "68619539638"], "dense_1_weights": ["117311669375", "201962278643", "194059988175", "126110571608", "-53180176934", "35444710043", "35076396847", "-115794278815", "-209972988803", "-229406663419", "42016966590", "-28360655066", "95080406619", "-99177546513", "123982984376", "-194462053667", "-152661369020", "12927234362", "237496693048", "-104019609962", "110627316656", "259373346464", "-139756491240", "-220464480095", "-22932156150", "43359674567", "-180188828772", "103485879572", "-29235184855", "-89539189971", "-3755617203", "86641538357", "58574285886", "-69791009065", "-2032502519", "-86970563370", "94708676010", "-13354427502", "11524626191", "-232012107787", "-40069701998", "155020025511", "-49077746320", "35195106484", "52542259438", "75400163440", "-185385017334", "-125116601854", "-111823736877", "87849645135", "193197724543", "-75465762869", "164939808373", "-218181462773", "14233199282", "219032355619", "75943295414", "161756670578", "120916912767", "176986685913", "267747572546", "135262705308", "-201633827783", "66691632848", "-137252863302", "-55750243655", "-98022219723", "-235306483094", "90131093305", "164904797102", "99590872042", "-35330499656", "-181594520020", "81565618598", "186168678590", "-43250796813", "194338374893", "149214511627", "130493983919", "121011936903", "42292677260", "-125286183785", "162038482726", "-143080053925", "63256504261", "130932407980", "101310228992", "179982041053", "171585206014", "52623604232", "72147565837", "-76202010644", "90757038119", "197458369412", "120811684752", "90963840888", "-172671900270", "-140726483539", "120385707548", "139782347504", "189580072560", "139503471318", "8485432366", "199076218048", "173179165139", "118724740912", "-151611536576", "46888262920", "166137884980", "126245596364", "-164654995805", "106376916408", "153475544957", "-119588193645", "-171829952682", "43526036295", "-212044524136", "120891835845", "17551572750", "177146559173", "62482973618", "179633765466", "224760970357", "97443814795", "-4062762751", "-165510940941", "217645086058", "152500381106", "248616533255", "-12608934584", "85689324274", "101305659759", "-198876212554", "-178946235228", "164403116579", "119621666138", "-165691935411", "107517488591", "-242219215967", "151418935430", "-221053987864", "64595223212", "176672078252", "-135243000291", "-29268815222", "-55463876694", "44154749546", "-285581641887", "63660154053", "235564298808", "-19607228308", "129976882179", "113996809850", "207443092913", "-237225972124", "49757022605", "177329296279", "159827268656", "17616918861", "180815620633", "183933991824", "172123532156", "-167877035686", "-207658180772", "6181640934", "196777545209", "165697795089", "190775649063", "19045841705", "-196795581654", "-173772525297", "-223238483878", "147797953976", "-174400083847", "86064242168", "-129099730448", "-142090315001", "-256962823721", "-265764801703", "15813643788", "24721851685", "108697615246", "-131536155372", "-29261308854", "-36666620446", "199415519943", "52576067092", "-315045210924", "-119961502829", "-133653197761", "103097709647", "162403860825", "-131650772562", "218389648261", "67720244910", "-10447379525", "-129607968993", "-263263385165", "18084912119", "-197695298594", "-144044299246", "135038222458", "-15366176859", "188713113949", "73020086271", "-101683250877", "139491361434", "175216804989", "-90786217544", "229111215583", "-32710286460", "41814631261", "43843709367", "-207058422176", "-133867929074", "171148279516", "-164545649851", "225479115054", "102778487294", "2763356864", "18923114331", "-161744244020", "-250946939217", "-6401712101", "76713897576", "229949256456", "143126522554", "152002966239", "-47759053667", "426261292", "40509490030", "238616616690", "92612066707", "247534133115", "-200324986813", "102643433126", "-46144354742", "187035849239", "-246736835669", "-106512534143", "56409870495", "-86041246447", "63688987679", "14196230185", "81102807088", "-13999462640", "-81883616343", "152639905033", "87854399000", "-212765993651", "66739875156", "203007075477", "-225063379719", "57002246322", "81037444664", "87462121340", "-183431231223", "166442525396", "39844331675", "219046431422", "-166107092298", "570170410", "123354216620", "46616238557", "-137365497934", "91305119085", "-158173184236", "-285461555396", "211239655589", "-179816515849", "-40215679068", "248219822145", "-181054737136", "-220344052619", "-81855403228", "-93210339117", "-223292897439", "53584649324", "-115757401246", "244191800706", "100362151149", "-177866030885", "101772885284", "98016595942", "241155641770", "-10458356203", "16119471201", "9131966840", "-41848093993", "-44998154696", "-121925369418", "-142059976721", "46521407305", "-78971029085", "164840105968", "45213092951", "-250842672367", "-161221624115", "-59537788271", "-230265543756", "-126831984566", "279565495167", "189249902232", "-170599842448", "-214356780252", "190210939501", "-38059513715", "-160927065529", "-77890740747", "-120583814556", "-58808138198", "91377683324", "-137245453352", "-131486799892", "-120218798660", "61454494559", "166324488184", "-105377147409", "198351083026", "114133313208", "-160759107730", "-11488666048", "-223732726961", "-50422893962", "-161072061765", "216884224283", "4056351564", "-206614579920", "-203001013063", "242103158962", "84506502199", "-34094885232", "-85552394235", "-122797274364", "146808099807", "-84890915035", "-222592804515", "59598809251", "-104372051636", "-110950059175", "-183845264112", "20604166771", "-240639116343", "-83801458471", "-107052853038", "223813040451", "159720361763", "41417660190", "-114330992380", "-211448956129", "231743586843", "-141390481566", "-32873791183", "-36898860044", "161711649820", "-211487435215", "79630556972", "72217286747", "1918488719", "20177161538", "-121437200041", "-115002328037", "212006085336", "-27003722459", "-149975722922", "74324273029", "-45713721968", "28285702235", "-241545850696", "-124567623124", "-4540391415", "-85808580723", "72504018565", "-278473216112", "-165129802319", "-135205965182", "-205312194764", "-41210481220", "-161521004605", "-173597778626", "-24374612882", "163667815348", "-118652575848", "194882432993", "-90305151597", "123286843819", "133513064708", "123676833397", "-10189737187", "149857450130", "21803619345", "-89599082568", "204453421173", "-129981856935", "-205416662347", "20552330322", "112217303772", "-80150567442", "-41884511101", "34511211070", "56994888506", "229139803233", "-249183649833", "147773761427", "-121240179748", "168604267675", "146802922977", "3923934544", "-27293661424", "-238843309680", "218264544769", "-175816122021", "-41864572677", "-22416898839", "-178561215926", "190823901658", "-86579307682", "157488476226", "-152604791393", "-235816704641", "136786250397", "-226113504256", "125618084261", "259338045114", "-10212592072", "110841099597", "144170776774", "89039043566", "-82877416047", "-90798568203", "156832934750", "-138981075466", "-208348235072", "-54460706042", "99578096074", "-7667147442", "-64618345517", "125402893324", "-55566080590", "-150865708550", "142917219720", "68284832876", "59870530290", "196088407324", "210114937101", "-48008455470", "263236341753", "63558946749", "257113847941", "-44177895535", "66712291433", "-223278394846", "55737295688", "105968000347", "-61617162097", "-207141342127", "10000844375", "-37916111348", "-71186710668", "24816516833", "-46955009694", "30113780134", "205209113637", "215489482345", "-189473216556", "-185535442591", "-43378495927", "22259059440", "56133469425", "-69801680888", "-160342848060", "131282079990", "-185204514082", "-243827516117", "-224224534529", "122730161312", "216490236159", "-67387881830", "-89505315069", "31125816257", "-104347649281", "-114305691023", "50327861989", "218381737469", "201497318629", "-119828867775", "-90826722832", "-85965048220", "-5534653282", "-62763789360", "209976308417", "-156190624404", "152514029705", "197520071989", "238461423452", "-26578737535", "274254187690", "182333098128", "71693402455", "9269352989", "69551093410", "-143854448548", "-192301907304", "-109096600340", "184343598904", "-135388099814", "230569276419", "-160972882505", "16414890356", "-148774375033", "114179773586", "-3671994370", "-159140405869", "80507535978", "168410549109", "11190856908", "139826087138", "-179808701706", "-77729332832", "245823056389", "90261894540", "167425663751", "208057277643", "-72207792004", "70225860749", "188255687088", "112966699845", "-59907748942", "242783029123", "-92862238460", "-178686525962", "212601122745", "178316453426", "30126502615", "182633487221", "-158310702584", "-108825854790", "124620347019", "25413585611", "91665174101", "-137181739282", "231335695588", "168076805638", "-163164592705", "-25233345849", "190760548723", "71467559257", "127430351949", "203289286095", "-109816598720", "-164692223722", "44363787340", "174812180602", "200324082926", "173938154374", "-218901501123", "766147314", "-13753674741", "-92910520631", "-220582198847", "-136970707836", "-3177241013", "-159409220730", "226566236787", "-105195828785", "127038668957", "250887742355", "215042680648", "-271552455867", "-162312334644", "70469323559", "-135612047907", "-232724475999", "110382580801", "30448125916", "249303618541", "166077056557", "-85323308445", "-276674587132", "137484087427", "-104283213868", "117010171545", "240567078713", "-171091751401", "143054135176", "-263842065732", "-61347602325", "-144544365815", "-240554905673", "300808312881", "-25643165101", "-100628847965", "199285351575", "-74757062109", "-20307692287", "212973542014", "-39664334568", "134685050042", "186135754381", "163324668376", "23797516568", "-128009266493", "-94879025346", "-48212434872", "-51160191344", "-92135858930", "93214242808", "85570919346", "-100939204540", "205971512429", "157911254000", "27773615825", "160081855723", "107153584949", "-155612984092", "165880092991", "22180733381", "120697941695", "212073814311", "120765015972", "-111508939846", "103687128532", "-80851829503", "83321106580", "-46458578681", "136106390041", "113725959418", "2284820603", "-165351994712", "182634081715", "67174032501", "187885203864", "178806447356", "-45243953023", "28127163750", "-83833085413", "110291545612", "-206611426979", "-196405576602", "-37054177713", "34414023227", "-218486758278", "-114907666698", "15009748730", "31470617443", "81750240228", "133998658407", "-153254786392", "211549944463", "168606031437", "-166288653789", "-154204382143", "24929110524", "-234623592475", "58089790680", "137075587183", "-139955412522", "-133402382033", "-65680613197", "113938848081", "129110587873", "-45532458730", "-3170254828", "-78439693342", "60931127646", "20988784483", "-121647595915", "-8459970763", "11659021698", "196041814008", "50389320105", "169382561169", "79508039931", "215241583040", "23521833482", "150624432366", "-83648935688", "-288489061024", "70228802892", "115940713162", "121779467871", "27135349053", "-25746810561", "133628101910", "49389002055", "-234790072591", "-78912414450", "149329033079", "84310534177", "281390821373", "-46094704172", "47087350606", "-22324517584", "71277636122", "201729813811", "152205213077", "223129877508", "162147897937", "105317493747", "17327424574", "-237962812900", "23646687755", "103927281319", "219597106273", "-204566296146", "-31689689585", "-103007512293", "-62978372643", "3499118733", "-8608148806", "132667527674", "-73082611167", "67421718739", "23306468134", "-63098060990", "-238034031548", "141876287222", "-60205998279", "-34738647484", "17599133923", "65076627309", "98966279219", "-77579281238", "44038616220", "-92133583299", "-67665258390", "-32516166133", "-75767974282", "210013427510", "-179359229671", "237514524943", "-126515643770", "-137776280928", "78182209135", "-186761262386", "50283862212", "224931079276", "-198116730319", "153857594214", "-144463875970", "-144265069917", "-222990676", "170119408425", "-37196566774", "233419688196", "-175570456064", "-189918879325", "229716300218", "187886170452", "-80044681478", "-60176384734", "16647785106", "174987745798", "90798520837", "165916376567", "-21918775066", "89233231786", "-85941584314", "-30154126153", "269222793004", "-191287701974", "13561591265", "251282644930", "188569568387", "-112112399909", "-166824519186", "-70944762525", "26029622988", "-105423095067", "-172069216528", "15673314303", "107915830303", "63817183215", "-240902655492", "-151417576173", "-112745520520", "53177173191", "-10451285975", "-8480307587", "125798148918", "-170417535113", "-106806106046", "-111145090567", "76237641959", "-183249315861", "88797953392", "74545168129", "123577107101", "-9555570478", "-58701338283", "-189729838538", "-119937161773", "-212272442470", "216866175758", "127577344181", "-147265187914", "-144785780979", "-32684282312", "213820461401", "166778826198", "-177412804157", "60836487657", "195679216662", "-162694351191", "-27509232299", "-9163545228", "-107863177656", "-189220289734", "-24598914234", "-112712967203", "151206900598", "182147797180", "-64213288962", "214903971590", "-149225896662", "38233325993", "229068422838", "66345742121", "-53282394795", "248794971181", "-98719437606", "41304264489", "246958724138", "75848386594", "-222628734451", "-78745032310", "-183065237058", "-84949583006", "-115393691782", "82359433381", "-117046743929", "-142488020299", "-222288797892", "174404085016", "71921283546", "-112298604719", "21779543508", "36851926026", "-110784062078", "30745823727", "-233618380525", "242434190215", "219641455347", "-188653170470", "268234098766", "-4666269623", "73707911351", "22836287437", "-105938349983", "65914897965", "-24556974587", "-108473156058", "239777837128", "-76144443756", "-107101613013", "-188732752452", "78199798480", "229637079111", "277291609291", "198574864188", "-85974973063", "263102947167", "230589243141", "78696163849", "196739016523", "-120607618252", "-218372359919", "124887206560", "-10020768936", "298191849407", "-184542452968", "46005683523", "150044513788", "-217896163654", "-173148828235", "20485717090", "-3306465175", "290309920969", "62052859705", "-172142569585", "-28465756522", "-142996680734", "-31920273722", "-185475651808", "100098697407", "186360411809", "216421391612", "-204770636258", "1887665224", "-270110913202", "110914935385", "-41833195500", "-243231344098", "-108280391663", "-283392790586", "107907435614", "65195822226", "-153606441714", "-136873455767", "203136458853", "-108015705569", "-61065983055", "-53979093416", "-82970324212", "-111151976584", "93225526232", "-4730770670", "18310042024", "130696286802", "-19768659047", "272108050099", "-25236999277", "-184311565124", "-187722369791", "-9361297620", "-273090437084", "6126241790", "176232072852", "-48427519942", "-15133027530", "9201543324", "-41959088203", "172417028663", "303728497435", "-116847505869", "161625143297", "15828290441", "-37407391322", "98074683412", "92659542612", "247308703007", "-59531912194", "-126924941806", "-32064817365", "234513822000", "66320754508", "201299356266", "-110932875985", "19137575959", "134305139152", "-136643718283", "-207399908210", "29860825391", "-220307576727", "59807143845", "-68387186425", "-85355203255", "-53053276793", "45709067045", "-26382870491", "-30587329190", "-102491350961", "241090349601", "86429758805", "-190910098998", "71939408754", "265400711546", "83241485153", "86105418476", "85273314492", "-117120142180", "213221106727", "-36083556782", "151933199619", "-26478901195", "-72188860469", "-50013906828", "183125531472", "-23489259299", "146967701859", "-121176301077", "-98987809714", "-143776306656", "62367931694", "-76633293238", "104045872027", "-156234173930", "235426263494", "130130572551", "161819795224", "-127622910501", "223634845831", "205739715155", "-147170398345", "-69946178794", "-20475603254", "-91298129438", "-81406621852", "-109323464030", "200447020766", "234321603170", "-209832721018", "-214369945601", "37543631009", "81304629840", "8332895247", "209660623885", "29426961299", "-108814349619", "-157477463698", "-103839320920", "-36421621242", "-141064183062", "192665570256", "211626598581", "208352854981", "73454399537", "-1864205020", "57709498400", "23796699379", "169193041215", "50540153898", "-113310011956", "-23604278234", "-51258278955", "49871715040", "-223137650122", "-228266177174", "253554451453", "-178680732267", "-129613358656", "194481164938", "-126313391456", "244737416095", "-199932397926", "230595571241", "212848082043", "143144299967", "-111873623765", "127271718009", "-158489301729", "255996416385", "-9977458921", "200553041159", "-106696379159", "-175050795471", "-64594976936", "58978066493", "26932710610", "172670918415", "-99879223881", "-212416709497", "-178700929657", "224752650571", "4368432422", "162207744287", "-101736911897", "71405023959", "-208625665002", "131251808288", "82570259057", "254655645410", "144265660064", "-192918987058", "30024999119", "-80543242684", "-156062687019", "54381541817", "-277117929928", "126226944767", "63895323546", "7467263512", "-169248196280", "97450114994", "220633174554", "-30157277629", "58801971579", "70297079773", "196004851956", "-231158646973", "240522630653", "21095997183", "198989077511", "-147529652001", "-213601550511", "79065026314", "229516929052", "78814545349", "-100381344166", "249602561834", "128128764275", "16030333666", "-9835752549", "-9356370109", "127974903321", "-126716864078", "-175826813723", "-104541031233", "17445904632", "-122203865390", "278478455955", "-47052953517", "143241296154", "-184838545596", "260875363156", "-41781373176", "-166512735143", "-141980967440", "202233363465", "-109174554914", "-132611163310", "35697671118", "98575846772", "-22601269111", "214289029007", "-52484267633", "-160344790886", "73463657985", "-15442602301", "-117574489526", "-126614369310", "-150728977307", "-227083586640", "-197909116671", "117959147867", "-70268519111", "-140433078766", "-157109474489", "-124151987961", "-126732334348", "90485358207", "223107928502", "-149737180428", "-111646810140", "-97738929968", "-188679338907", "-138007494394", "76058818086", "-190591539157", "-142329475154", "-255605064798", "212511876555", "-120509641674", "-126934583067", "226001496351", "134971159028", "-188429090706", "62285572015", "150936927774", "-56493863581", "-115384856153", "-216855732874", "-165759118642", "-189152929891", "198485404420", "-90272626265", "36494287041", "63558277760", "-28103407369", "-225541366354", "-250308527485", "66387170711", "-13290188423", "-131249275224", "-181177837740", "-219085481575", "265435407117", "-53063035321", "92984210135", "-27483115439", "129634381479", "77685836160", "-124648488256", "173598330668", "-29673327329", "116256081967", "36284459736", "114990577953", "70473407851", "-19943522260", "63001414725", "294367410931", "192314121599", "138134826046", "40687497946", "-58434716233", "-13802255160", "59311428352", "216557909235", "201706132059", "-28267651332", "-40642591932", "-109343846838", "229749976165", "-260085413910", "223143804335", "-217983640515", "197904164791", "54054113251", "-60951796133", "-152223140945", "-173193204575", "-155415584779", "39193871600", "-74292572791", "36717899387", "96085791107", "181606439756", "6987166493", "-194536552046", "-239515378129", "-176572264649", "266895281284", "62286918129", "128752592872", "-167903408250", "223535321862", "174131504561", "-218341306459", "-232320443731", "-139910288815", "-167470622613", "-127491389819", "194925532506", "158647332608", "-239035903090", "151968446534", "29643239547", "-71236785767", "149856559125", "-10432891243", "-17376673708", "-136744785708", "76570070864", "9511400660", "-169991176344", "61652890884", "-58170238377", "-84839472766", "188301228371", "160035319867", "-48956005131", "233770184156", "67312472726", "-216877372855", "62867730701", "145226146815", "97719501056", "-94497201924", "148077280592", "-175598764324", "-107725818298", "187307616901", "-140540319507", "137411126748", "-76255900927", "140225757436", "-28436654559", "67815446878", "202710955817", "-104043802408", "185712193365", "181244340340", "141893481928", "43752025701", "-231850414198", "-53900983763", "230237500633", "141497424322", "103234353375", "267158553819", "-30927399733", "92893125906", "2218762232", "-115514956504", "93621494580", "157507360764", "-72820594039", "-68768055609", "37980116521", "176748169018", "245097107449", "134815211674", "197442332221", "8465542488", "-210428630071", "-218849480114", "288192840738", "278954521323", "67066460797", "-214409550016", "112124971112", "-200117848981", "167347351253", "-150236895851", "119106412719", "-210156048764", "-61378403524", "-114418218711", "49792880656", "-14380731027", "-214286492976", "-232753173463", "143311697984", "-207911224918", "100227382255", "241278514661", "44623926394", "-254441209385", "-164430655976", "211440851615", "197231673540", "147066527745", "-86186927053", "-239805534682", "53668498387", "-128890702109", "-202490405635", "-167948021423", "-20948960711", "245969194349", "-104304484513", "-67839631846", "-230054321908", "-87397433824", "3622285663", "-115358749328", "-132524163036", "-16179769657", "122687678630", "-247610503349", "209858456536", "12693080269", "106632352017", "-98997941750", "-211356234902", "103351200086", "-144986903269", "214797664172", "-29477789264", "-47157272143", "142864063582", "233832750363", "-2178911165", "151178029531", "27962601432", "130922375788", "219553845835", "-229886536261", "-117534896664", "96383040758", "135161447326", "-106809235980", "-33795642154", "7080425591", "222992016276", "-49212355380", "225351984134", "149194086539", "119424613585", "136477763971", "-197407457066", "268955576869", "-99812636511", "-73733787971", "-188321548862", "-160055286154", "165969953909", "277492917896", "-188027550090", "-50309609385", "-23009151093", "230062623741", "76088080319", "94636303776", "-101637460390", "-132159887161", "84138290046", "98819637218", "-123269062589", "-168384932405", "252861482183", "17238851149", "-136513307946", "-172767733052", "153352307836", "-227338823057", "219317946236", "267875756937", "194928963370", "13722746131", "-79660442106", "-262312686605", "185607109272", "-80902038086", "-18395453871", "-75023283728", "250508954652", "-84868267117", "-258674594157", "-57455322036", "-188037052", "173659529155", "-175203871958", "210944461404", "240992323525", "-143751117087", "-42518187866", "97688787426", "-163519379503", "6103166398", "-125968260329", "245487958659", "152547356594", "108980543628", "-136734601282", "-37794603931", "-12785613997", "-25091938166", "84673112178", "-147294601306", "142957158437", "-19977510315", "-247340329027", "-95718220640", "-212261878102", "-156467261676", "-216786228584", "52893871863", "28811197830", "-205630320279", "132091171707", "232561269888", "-134511193058", "-75027129812", "218206584865", "-213102715898", "76193871303", "150752182523", "-58346511588", "196892120001", "167407781213", "256576212766", "-96364412154", "112254269023", "-79170055967", "-159657452431", "163566141305", "-188096299595", "99532272091", "7463396691", "159405598322", "-200656154528", "-29139906063", "237338708036", "-79932085666", "-117111878771", "24588928212", "-159959343389", "-165066437474", "-199956454479", "-120427589575", "-143610777008", "-234855759586", "-36303589723", "144945915371", "-186939079316", "78830409576", "133719592038", "-66180067517", "123170382583", "-161051597563", "-67313019884", "189067076487", "221431474231", "209800197576", "-59679034546", "-213185397089", "79429121290", "67220369127", "85875295374", "-165979376081", "-54433542032", "-185783653189", "-128966960830", "-72673478633", "67228404438", "49569940199", "192738109844", "67104811572", "-41623266626", "-31774153324", "130727201571", "94400390062", "10626568110", "-139886980563", "-145899957641", "80247428039", "-209319073910", "-70038449830", "260636304981", "38861768594", "180641208245", "-64156707350", "-137057970170", "-18230287061", "-130167218512", "161495325363", "-149799740189", "208826714363", "105012564787", "-237533545741", "-53843936287", "157379358681", "-181996879076", "205565621389", "46257503581", "-238355734914", "-108733566470", "-58219917934", "-237350971986", "199463194039", "-192898292196", "12911423759", "-172241208067", "-264476630003", "-10089416068", "-137846141363", "-173386429937", "128664005927", "150205825599", "-132398246511", "125430059725", "50332806254", "175938913122", "200221186794", "-196700488111", "-185607050074", "120257020031", "212719812492", "-122142444899", "-161480374811", "-210349311928", "190885220599", "192335171779", "-145301864778", "-87771466300", "93429614683", "134547536776", "247673042697", "-172074589981", "62639956016", "-203655334226", "11218246855", "-80779641020", "77916701055", "-2460601472", "-34705883244", "-157882902693", "-10436955901", "167894824071", "189211965151", "-5759697852", "151395966586", "-195406666293", "114382554071", "80923218986", "83510340301", "98687140068", "-79573391239", "112177667474", "-185801126428", "88004729955", "-31521711983", "-209828821190", "-54825456041", "150252036660", "-59364215950", "-48658010941", "163615623204", "184071604251", "-176693667479", "164041876247", "-29251111270", "133127269178", "4188263231", "219852946357", "-198538181060", "151926768327", "-168004719846", "23611142353", "129184824534", "50870617717", "279887434137", "129906843574", "186687938752", "-131569259721", "-38356868822", "117145213147", "204239871327", "-43835868536", "-117836369420", "171429003008", "-73263533840", "310652436987", "198239755151", "-187332814569", "72549724721", "-12626279153", "93633457697", "-217904799759", "124887504228", "67424004357", "-78068735533", "172941578897", "-205992858121", "163924346390", "170781274939", "-77189185674", "165937235792", "111322729997", "158990648902", "-191410684093", "-165994574556", "205352837516", "-238016499613", "83644484363", "157728144576", "-82660324680", "24609245579", "-100735681890", "-282456441729", "167962918590", "-81089011083", "-96156095354", "171673881474", "332202363677", "-123910423086", "-19037175048", "-92786344747", "266214186407", "-32830182703", "182954921002", "298893750082", "4600691735", "44829169928", "27493490720", "36898444168", "27251625597", "336641335931", "155422467105", "-16744696476", "7263910381", "-114774835890", "306502431818", "-77332135442", "-33258838466", "115619180382", "143712328187", "87484198521", "237492183424", "61568780661", "85224235460", "-46794673131", "24168189348", "-216317139196", "225964587432", "39404065963", "-202110911283", "44694744131", "89216776492", "58714467204", "-40468326709", "-77878559632", "220637733804", "118779056109", "158909519274", "216647717769", "-184061910102", "128904141037", "54044755881", "125170803267", "1881214240", "-138700609152", "-193385715942", "231385019019", "101502344652", "-235895875253", "-234159845487", "-221758718233", "223785683833", "-29591401072", "139772814372", "86779291326", "169971917604", "-291341999937", "81779825357", "-277631252083", "178216857382", "95556125564", "-19443364343", "55888567780", "-158090725752", "63792640150", "3293407886", "58315502114", "-166549200375", "72821391660", "224472177359", "-67783544577", "221315311330", "-193566057327", "118090497807", "-172228253835", "94589384960", "-195505370494", "143373247758", "-171321119211", "-187500597862", "-125343623437", "192026613753", "-3186031141", "139130920368", "-113139227325", "-70224194892", "45744357339", "28457484925", "152865530183", "78146936755", "-17869671", "-141327100093", "151520683457", "-61004549807", "-9509893007", "-120893155444", "201215271982", "221472164632", "-135963337037", "-210722903313", "126025763610", "243357520678", "-115378796582", "136881609420", "229602417772", "-241569109428", "-55899811109", "-171732141541", "152395034994", "176947525334", "136404891079", "-188568894442", "100551186341", "64057548762", "-70130996571", "160739366635", "105342869324", "-56659075472", "-187647376271", "82373755945", "-194654193828", "203586256457", "-187817260397", "235452221259", "93979030684", "116287770862", "-7640941833", "85272525683", "234865644764", "-97880758954", "-212094266024", "-41630861304", "168848940111", "15903935968", "189958828900", "-132357638633", "-182065311097", "140728559661", "83382808217", "239714587861", "131772547785", "107330119994", "86130368067", "141802532986", "-32353861380", "-69076645993", "96860032114", "-58987496700", "22254369308", "-172954851765", "189920450866", "-20790574633", "-180631186500", "71853707751", "-104380093513", "8321084124", "138728786166", "205597144570", "64411216631", "200195800479", "30947090277", "215010247428", "-53230337044", "-96235075078", "204134859804", "-153929600965", "-122244549134", "-212720364477", "-144256535660", "-222536876253", "67351033692", "137797282967", "-42365345183", "10095745970", "137403253497", "218145059443", "-229471083730", "-10916109168", "84620675322", "23630167171", "13901568784", "-186450881494", "213924853426", "-163638693214", "68736406442", "-183043690332", "-171641285698", "71758503843", "-98584650459", "126583483573", "-8040434226", "42264149999", "151676284206", "119132626615", "149164840281", "4857303800", "-37099736509", "-90207752648", "-53838341614", "-47977583340", "172243835046", "-112840741436", "-199210865463", "-33177216769", "128833254365", "34256813844", "54705192544", "123910392380", "-40658467506", "106403258485", "53995123411", "85580048120", "-135649760941", "45526403649", "-62985693315", "-92800063186", "-137589434757", "-46315487529", "-126549046795", "-45900347932", "-222299872038", "33034624691", "111166825950", "-77750489194", "-178747096222", "265397767602", "-38768459869", "86163824306", "140214702068", "-232217945409", "227117238828", "-89624852745", "203241613566", "-137273381010", "-44652740115", "26519579801", "200270368130", "235472539524", "151251072601", "-231782136601", "-129619709385", "107432821657", "106257148153", "-98983104213", "192595970954", "75767705895", "21211732334", "210099380810", "201942363222", "-187278818284", "118931329287", "-160256508219", "34448877105", "224021532619", "-82555321716", "-119889752686", "147687711974", "-75963782562", "193838481486", "73143629677", "220443820185", "-97227231981", "-150806631949", "-106629991650", "-50261689062", "67341140075", "-179697123796", "-127732865979", "-76062444882", "264213926015", "90193129116", "-157546441092", "311058968823", "40596147678", "196392508447", "248860922518", "-233421164050", "-21400956289", "118052215068", "-367588430514", "157906810298", "-155272856691", "-78067492179", "88504723695", "149455814086", "902506194", "179342996645", "-15624040761", "-169175663905", "-157802932125", "-244392483561", "83727979234", "-240627397636", "-18831052680", "94916566160", "-27827202640", "47991295113", "86941769477", "-27142864206", "-195070007594", "13691307113", "39390500553", "322422270284", "-164700011575", "105865960305", "28487906947", "-120194585659", "-16057815755", "108522473307", "56939178072", "246715016566", "-70445180209", "15758547808", "-156118191957", "220047752783", "-99010384322", "243267173463", "-85141208014", "-2240251145", "75975039217", "-102824923054", "94323924007", "-229462655733", "215741544852", "-92165603767", "196719253406", "-147030218471", "170175217774", "29379911898", "277031650411", "247424791887", "186026030519", "212133107091", "-13622597996", "-158565716966", "-20532061907", "-48765898420", "132698089734", "-37692635710", "252502540615", "152042318711", "124268379174", "209279041350", "96098734457", "-156324905171", "163378349415", "6746045928", "138922086213", "277838778112", "313780749148", "158311852754", "-122786910672", "-76589299953", "155179425078", "-200288123273", "69876170806", "-11382667428", "211358225111", "18899680765", "-145048805054", "-245746608841", "167125702283", "228337256116", "-151557440168", "175291457735", "-248760284787", "187779378829", "123112692054", "110914331914", "-137452042509", "-78769945891", "-89896033909", "-36869519786", "195532351732", "148598281770", "55640934350", "-44129311559", "36141093347", "128396418050", "257513952263", "-174687696819", "105960670187", "-187157328030", "100325555917", "13484747825", "-95666329805", "4282556037", "-65104217586", "131246773141", "216387484497", "23667896120", "-146987618627", "-7084254148", "-117278226712", "-84998876446", "-165365958061", "-159481640354", "157777505366", "-131571743759", "38263149969", "-113104604305", "157748738989", "41687535932", "-35895180696", "-170820525709", "75769518502", "269330127050", "41087991658", "166271900253", "-77077214318", "-14341108799", "-923585453", "-142508255857", "-13869496873", "-140287280143", "-166165359868", "-196256450367", "-89187776887", "-179944633314", "-19553161532", "-238126716997", "-119165357733", "-148110084992", "-1283291959", "39177389117", "102156799631", "94389179994", "-223259885759", "-141476437164", "121572762094", "-19218000248", "-40086876144", "-128315527740", "84820676801", "-56982370453", "-127296973199", "-35435964996", "11232789303", "41279574177", "-111701400546", "-114235063820", "-38566036834", "-3411718555", "-126887355587", "182812522934", "148930927533", "149791306046", "152401337677", "-307946394092", "-3429245557", "-223735790982", "54770755701", "88008701683", "159041974296", "-54095340526", "165428142604", "-235073635859", "149304119314", "-74999930850", "-92368712564", "-153668334708", "129980926756", "226055224053", "41881358143", "-21055731369", "221366726936", "-134856473276", "-231230810795", "119144966337", "-83176977164", "-188377096343", "112207257455", "-202391866829", "51635064354", "57885751973", "183167217491", "-72573175705", "88080701526", "-185983474476", "-72746458719", "-86460635719", "-146599223", "-110058439384", "-190979619345", "-197849843198", "232501016568", "227964036390", "48875452181", "-58975714876", "-44826235818", "17148515103", "167791754659", "166519842223", "-240801530165", "248419984402", "-237949650779", "20933672010", "-168893647035", "-2413574160", "-1140610681", "-39605798087", "-133936631458", "-164029531214", "-120305809311", "204745972414", "-25680294357", "-82383548990", "804957588", "237054803104", "-45189766743", "190649317371", "-57005680009", "75511411098", "-199152928578", "9039388588", "-118978230353", "-188480048538", "45673837070", "191045835315", "196826182277", "-126711154841", "21241639219", "-54780993019", "-288020998732", "-193774997389", "26053683976", "-220851143232", "66598913913", "107536576754", "48532658836", "-21144673303", "155883211291", "-215781942034", "109342014273", "146716245971", "-1386519547", "-256294171971", "90625881051", "-129124913234", "13912687641", "158390240583", "256493574754", "22438097703", "-82685330976", "-91757518270", "123815771890", "47075228567", "-27937114020", "-230550611534", "-319224928102", "-35650446098", "240751938569", "-102122834432", "-11058913040", "135888392735", "147673181011", "158594077842", "143608667269", "-102072082094", "-58584182034", "-154704300518", "502930013", "221714787594", "-23210142092", "18417832711", "236856419128", "21723911955", "-103476506799", "-131257858699", "272907668892", "199906789350", "109120514126", "16546023027", "109044556072", "-188651360940", "242806013120", "-105510033046", "175055170096", "14614766030", "-29867966605", "-182104985256", "-163383571754", "-140042302887", "3843688208", "-26442349744", "233434536831", "-264091906754", "-87685011499", "-2633134229", "-111656321048", "191258375302", "179395477343", "-206499622078", "-87063330318", "271064865842", "70531575652", "123713652952", "-243210954720", "-251845208619", "-7957774923", "112571050724", "-5738117702", "27592570170", "18425403328", "48171927050", "4293786057", "211555925694", "-204686875078", "72927147596", "158584079436", "-118841834537", "188788946322", "-691570437", "-11668015772", "-92997120037", "-144113480260", "-168968628714", "77919436284", "129504430809", "-167624753153", "223196221079", "-70294439086", "202476973728", "-47345993791", "-209166266221", "41716440417", "-204499915616", "39301422853", "81549959157", "227857295236", "-120894803482", "201375567988", "-116496270434", "-189036412669", "-203805986274", "41663619541", "-98911203006", "-200703250772", "129697836453", "-14259326731", "-172040540972", "102243445991", "-112567061644", "185153021827", "186807115750", "-222441715216", "135324317201", "-146159437335", "111930514871", "18786752331", "-14513506007", "238521234361", "295626748040", "-170900734777", "126412952938", "63796535401", "141441220701", "-80051517025", "95958380599", "69893048020", "234566932486", "-126542217197", "-213145029711", "-241925124874", "230251709", "22832250569", "273419567118", "-43693420775", "-104834133070", "-35948869049", "-28582652020", "-1169452319", "152752222941", "214544260001", "112321567452", "80118177949", "-183579023993", "-116970942770", "-126301084525", "134032071884", "-25809118806", "215879256241", "191779835664", "-17391824381", "-108390831737", "-147349553368", "196660464335", "-51911071370", "222545479", "16758407814", "-236920229593", "-145942879477", "-48411702587", "-225430205242", "-123564946361", "-166053028364", "-86645801050", "71368278982", "-90835911137", "-133867618717", "141133272154", "-36568251903", "-166225349059", "-146845327974", "-133127741925", "-259999277637", "169175937506", "61698053346", "97352299364", "148733415216", "-121394277048", "-186291353687", "180983706326", "-200949099902", "170547290177", "285488268471", "130608188580", "23103139531", "127129790268", "108725106591", "-172821776448", "-203562528769", "45493037239", "-52999612896", "-257373022882", "-36969093956", "-8966609508", "-15595786670", "-1631090759", "156164040271", "7176394763", "-170074347226", "-174468192344", "18969380783", "245437099457", "-26543764632", "-271161368447", "67851362950", "43463162625", "-55049512758", "65320250525", "-133693426695", "-70000619064", "-122832316765", "105370762323", "-73415257136", "23988182718", "76388940674", "-83004439906", "1352152280", "89168717764", "-126653376190", "173817884813", "-40710109348", "73036441036", "6741608194", "-152211138560", "212626617983", "90193482780", "17396208884", "-101524019007", "182016169672", "-10981405530", "-90606592348", "98413510059", "-162969130735", "-78137104529", "250959050645", "-47025765632", "196527506962", "-148445696153", "17690525050", "-103850927128", "230239113030", "-239433028221", "34991303833", "-104886137932", "-160683216185", "-65608892196", "-178136827978", "49567720279", "144586736303", "40400576008", "73847914740", "-136211453370", "123005466112", "-148066123350", "46563656748", "282255599258", "-70933585435", "-32081904072", "-265795277898", "140285956271", "-167393916847", "-196091307785", "97621548744", "-89334250375", "68154703863", "10519219709", "230757529041", "97439820922", "-169117108636", "-208405649641", "63888676982", "38419694286", "-20252236857", "17116765205", "-273604145480", "219657777114", "-52895602853", "8995785071", "44724025961", "32593987395", "207209026668", "-128184282554", "-61310677590", "-155691011990", "-93499985358", "-138978312526", "15154703845", "17350590722", "109928278506", "192460210209", "-196164044401", "-197317385875", "-22229320810", "-132243772006", "258262803046", "57100610614", "41713737243", "114887239759", "214512168745", "67235723332", "231312183448", "-45677304326", "-94884012499", "-146806179440", "76311398442", "-52732477373", "206494665007", "214516393574", "-114211089832", "-54070187074", "-108003040540", "-248832340273", "132919834627", "-19474597882", "-6006638777", "-41716908718", "133857517670", "-58559064195", "139423748160", "91463241550", "-136554815362", "-64087449862", "-137032614958", "55158871036", "-82588611109", "280416455345", "-242580712295", "233999074960", "77245766439", "207262683790", "114870653356", "-155111676821", "73733102340", "252877881167", "125815109547", "60630134867", "191660822267", "-54084369600"], "dense_1_bias": ["-12144726669651043418112", "29517584100024614125568", "-9968028913033292021760", "-26133891628346453786624", "27827786099848034385920", "-13315106326472946614272", "48096008800525747224576", "2291601386240366870528", "-23804955035023970402304", "-10155271849873252548608", "52240432989020151087104", "51221231715542124986368", "-18352887862253762641920", "29992628276883173146624", "-3218351346582460825600", "-33382396444543645908992", "24360137523897902825472", "36517374635628635881472", "-4580980553820067069952", "6585009210243161260032", "-94631413374927585280", "619811921521686872064", "-13276376294860374671360", "67932497988911181594624", "-16288313852383281020928", "73623381756171289362432", "39425510662159288238080", "-2700741166564923932672", "-16227292788977366466560", "-10438946962573063356416", "12320528234620802564096", "75303286377850846838784", "35909779527541496741888", "61540032931228393930752", "-47486214331809004519424", "-27068717901814406578176", "1075456934617427738624", "27838372452306723536896", "-12934780129418600775680", "53304757304543366086656", "29122087888782245232640", "20029126549226030891008", "-25805723299371791941632", "-32058543948136391376896", "101070284773614833106944", "51119873287893825880064", "30652356396988697149440", "-12905060703833614712832", "46457103223484602908672", "-8719991548964623089664"], "dense_2_weights": ["38144945772", "-91876802289", "-62453546900", "-11683423285", "141336925969", "-159512260774", "-240619034453", "172358538698", "29175296365", "223867512992", "-88902123362", "-217053111645", "-143164958896", "-129360530477", "190699085531", "153563748077", "-189303717169", "246373003753", "-226157535561", "78461820512", "118103176371", "143190675305", "43793383322", "-222431880110", "20261038286", "-224966334979", "7949046428", "18372069097", "179005038646", "203254449998", "154923412056", "141796052384", "-151415480416", "-169889117739", "-216808027784", "194082908292", "-166750559239", "-148310606526", "99194583367", "205087363086", "172470235070", "-63806882194", "-91714980644", "-130719186642", "132569662484", "52483139207", "194026220812", "-231787876871", "-37927624059", "-144227977916", "-59509197522", "-90376681121", "-228513606692", "-134745433013", "-187404360665", "83789227888", "22154620025", "-68387997199", "-76874295486", "-44739790135", "197240910582", "-51737478777", "138164695515", "90270081091", "-123226837944", "286378866416", "-10857524934", "-123720145409", "31951844606", "121820474505", "-158527353617", "-276805349726", "178471419840", "153971726557", "138021562039", "-57010325858", "-298686218328", "138092683102", "135558205978", "40634235577", "-194824436055", "116879312512", "-149063365832", "215043984792", "-56228283828", "-154444886449", "-202939615912", "108571299095", "-60782705796", "132868009578", "65923231271", "102488741188", "-173881217718", "91207912173", "224857219824", "122283856790", "118447615199", "-188193282383", "-144651472598", "-30015387814", "61983855786", "-238267843977", "93267155278", "167085607701", "80707095150", "-185764646713", "-135606692438", "246215447304", "-96539744429", "185447104491", "161998335329", "167458712730", "-62903861219", "-200243615852", "111537238830", "48203414625", "11415180442", "-185335271556", "-67539310141", "250747548026", "174408161299", "283612844141", "-217309811464", "-20579518428", "-9788083023", "-109644662127", "282342097245", "248981243807", "-127263935645", "-202160787512", "214786864798", "-42877675495", "71177571933", "-60032955120", "-201666981803", "-272982853016", "-49797679004", "-112588506770", "-210124158546", "178310973777", "112810640234", "-196087469883", "-107364640223", "181554191781", "-120475599198", "30435525631", "-155153023449", "-108829230089", "46381563585", "162203196434", "-72695609995", "20297347488", "171409178173", "-123136263776", "50188215133", "39722903323", "117511964047", "-54444119455", "-145903889328", "121727631284", "-71537609719", "14865702853", "-139620563384", "-89242557379", "20829979413", "37569494944", "82407606380", "-212497858658", "-251917979384", "-166764639343", "-226112808759", "-195031430161", "-154442887828", "27519999986", "-965200503", "-41142699724", "-64699746925", "27065726720", "-21783157186", "56947525392", "29355890227", "91305398178", "83809204519", "-197473277738", "85400674500", "21709720735", "-175195113770", "156031096499", "-91544379106", "259919330737", "92526587831", "-165775143700", "-220167138254", "129897122748", "89956479708", "143717524872", "-60299235968", "213465876711", "-55497538860", "74470535243", "62538646493", "-188977115193", "107062162937", "-45428312288", "245821770426", "-228099711317", "-86597723868", "-31262286419", "226077678671", "235040161904", "84586882130", "-168018331429", "269730441077", "193494532082", "6728083909", "203813276307", "-113007357267", "175696387872", "237223840776", "11730474396", "-144480375994", "-96793746240", "-188640512629", "-52528636359", "85133429588", "52918328752", "119646198466", "85036693799", "154207281643", "-147805607673", "61129834654", "-191421109297", "-214558336600", "90249809653", "-197918993346", "-69450118735", "68444152760", "-53619851901", "-17152783828", "-49000392896", "-34486457089", "109561410587", "-115240515234", "-37987909190", "-170748897499", "-174597203859", "227954054119", "-250728702915", "-131779088482", "29574484083", "17209678821", "187038022844", "-76827632772", "129767268691", "-199210189923", "40857503244", "170240884723", "190936988225", "-149776371583", "41864637843", "146932584034", "80822511215", "-114520620975", "-229926688433", "132107050893", "-206036546228", "9941935326", "-41329662806", "-134461191471", "-16418267151", "-152953506756", "-89454595683", "-189335660491", "133759372693", "69265130535", "-195335114958", "225811722063", "-203932208627", "221212177481", "153699390221", "60711119742", "61836131716", "184189883757", "-101301213442", "-227617889983", "-220122685694", "-9604207696", "-158931793177", "68399610702", "31377990532", "-127761980008", "-46329626297", "-243192248037", "134127838505", "40331910572", "-20454287796", "-115250909638", "-101402286656", "232090402032", "-211800240738", "207412071387", "156588571177", "-50035829622", "148314525137", "184287477341", "-229681692762", "-93554953980", "11452775629", "-104693051648", "-235735465264", "285493141420", "270525982477", "109475061790", "134363383234", "91665432143", "264530393634", "56671403463", "71518998766", "264748654082", "68926396983", "119667420864", "159102597385", "-206635186239", "-8727852508", "50053682247", "222757860733", "-143249331037", "-15789589086", "-15897929147", "58493600913", "-206181023784", "192834160831", "-61722004761", "-195484079793", "-31489713786", "71169635055", "-56193376645", "-153386925999", "175674189456", "240531024681", "38608215830", "-80162047985", "131070148359", "195755081773", "-208317681150", "93958252651", "-180250755603", "191508535028", "251060928876", "-71987218964", "15768850690", "-232872386131", "-168397572784", "-86593748782", "258075735372", "149797076239", "140282193098", "127806377009", "-75443529798", "152516075661", "28869722997", "116831132100", "167047337513", "2168899395", "99039269396", "131622266198", "-85734368707", "186060547966", "94686380624", "255708061629", "160952870001", "-122835720453", "97586140746", "-81706404632", "-179569216255", "-50530847520", "-134206317742", "-130323413046", "-137493143160", "179885188575", "171415706981", "73722006438", "115294133760", "16836883992", "94291712746", "-37238803379", "149486017915", "23315112598", "-111438876259", "5970099624", "-158883929514", "41587866253", "221301838120", "62782595841", "-3270636941", "-78484555598", "-40541890902", "-93337392832", "28669364490", "68088279901", "-202976854355", "61891308025", "242502750247", "176996494618", "103713553270", "-23655740991", "167311488765", "218110947046", "-6541749880", "69553943409", "-28778543981", "215577416637", "-136324228720", "-48803671892", "-93285952812", "180834358579", "256481526186", "-139229212444", "140967243157", "284136056186", "-101183166416", "219336315052", "230396573254", "-32934599461", "183848486360", "-173969481512", "225969299682", "-67498383145", "-225078037621", "222514997157", "152178979252", "150950945464", "75383930813", "-244745416285", "-112714006237", "52645773501", "-68101080321", "236851411368", "-92763487543", "-266030969665", "-69007947058", "6173487862", "106483634368", "134565480524", "-9520917268", "-157415127690", "-203142705974", "-188820726086", "163307706555", "109726873703", "189475042317", "224408031441", "-38681979610", "-44373254362", "147393766569", "56795576040", "47862027956", "25796941332", "241534324148", "12338266342", "242786117281", "-215713709165", "-25706406590", "89527744132", "-225762745357", "-172621225065", "29170869267", "-153764655890", "238297793580", "185782603475", "-65066960757", "21743903064", "-78146615624", "-20557743806", "170548470507", "146209729934", "249774044259", "52533203111", "-52817651863", "3604749018", "124667880942", "28046065951", "102390864406", "-103290525439", "-210919106192", "204976528885", "-172371008250", "-202142124781", "79038976583", "-24062169787", "101186068666", "54540351307", "-11622048228", "-42467700346", "96782902420", "-186293539240", "-132353025908", "-61280048585", "21109532780", "-114259341093", "-219911292516", "34907315134", "77017928694", "114883114716", "-83399847468", "-29718446256", "72684550575", "186099406876", "107117494992", "-230846927822", "268406695953", "296310257732", "-14278326527", "-72616901896", "-86726865552", "220736185164", "-66095209811", "-112799853304", "41252140752", "-140901280579", "-61888228973", "-5191812375", "-79915018893", "-181395232655", "-65763426365", "222130322440", "156405193576", "278597912314", "-87618302258", "-28434245878", "-32265102193", "-57400392696", "37175538752", "-200737431529", "199215382541", "66487564264", "-12204278082", "-217284607710", "-119124967165", "223992466057", "-223835793593", "-232259189068", "-183953732100", "-63980805635", "-20858577892", "78801732904", "55456189118", "199243419414", "189290637690", "98106568712", "-184007648004", "46098149258", "77798567404", "-31360230409", "70977735821", "-190359014886", "-212263594716", "83934894799", "-56183456744", "-130368992521", "87541674656", "-142173176259", "44613321516", "-89126707525", "-98564047655", "147548218673", "-39602629033", "221164306049", "233845914162", "-72755269704", "56330216698", "57354635514", "83848180655", "-56157455679", "254203593210", "124942072600", "-187213047941", "111556523716", "-234176618186", "245786046045", "7541211060", "-126158514335", "-164933062929", "34482302059", "-68885027191", "-210161432561", "-44864108456", "47104290740", "-197415440131", "8744020392", "-159543540277", "-53208073097", "782673280", "-123896996932", "-138303405254", "-71120629913", "-162028209321", "-14115026328", "120142582366", "223497387746", "1962248037", "217780004574", "7746923764", "140357728182", "238482377489", "79207159060", "6920142926", "-95494444797", "-111994790327", "96345292710", "-221483261113", "-129475014573", "-190348805134", "-200822574599", "222765572250", "-53181395331", "170943240292", "-189766913326", "37427713205", "248944757273", "-16540580159", "8574541902", "199247180648", "-51831501363", "238467071086", "-116813326297", "-88287664890", "-36822318251", "1741997888", "-167719757143", "215136786886", "32056253919", "46914201159", "-204080394288", "196687446448", "58175896216", "222782872185", "124567800570", "-142958372281", "-169877121976", "28682120332", "44910704194", "-158610131845", "-129779549109", "15642063277", "-180624285926", "-78458361167", "103396709296", "-175795428796", "-58471410033", "-30132622866", "108871290668", "-167438139295", "30882486915", "-18274638140", "-67686016176", "58979002353", "-240433637771", "-201052382192", "-109378016546", "165322398266", "-83844336163", "33185751356", "102440212101", "197892891967", "262928742593", "-178484886279", "-188685110754", "75700827416", "-97406311570", "-61291080685", "195691064385", "148121646750", "-219043006919", "-146602007737", "107589889864", "-220608595655", "252993679900", "53172964434", "-172960249817", "101118356210", "82215339871", "-109111022043", "-40643836703", "10041559220", "46026868143", "74575371408", "154031977080", "76316441361", "-171078986228", "-220442759485", "-118314311885", "51493395570", "143085842023", "107563650439", "-45488982480", "-133921470279", "7225155267", "-133558962737", "-206072077316", "-215222502710", "61252624703", "-171453773062", "-75749427847", "163642676426", "229733309779", "-9198878168", "-192496548881", "108963645910", "5360848271", "-48554297169", "148897725015", "192570687542", "-222444407687", "181242806543", "1730739653", "189867445025", "-185869313510", "76561340229", "-185124418423", "-121482321531", "73807848609", "-165827620792", "160851125982", "-25546407811", "244874024624", "59604668706", "157246898863", "-232532733326", "-113222099576", "-97498693253", "131236616881", "-158549500025", "27776487157", "191461746504", "70428669441", "-149458486677", "77739372662", "-108784674374", "-133219339677", "73904019534", "-130748314818", "-11220453011", "-99425246844", "116255911322", "52057517194", "162947409407", "-178412778872", "29478936478", "-106120445373", "179718540836", "-210737296238", "134108774342", "-83561188238", "-20976121622", "113547746613", "143241296495", "87412284128", "176483255992", "35213061040", "-147718931983", "49457795109", "-235348259417", "30896932870", "20885339799", "-15056987452", "-216619571612", "111730715659", "222293376413", "229957554465", "-252099891942", "-132646359852", "-212266992903", "146521639879", "-23053799481", "-189686517396", "-85556290938", "-121514386769", "120432830496", "68247288157", "7270146213", "-185995089823", "65534031238", "-194743378002", "178171828216", "227420635922", "-209434043853", "30463236311", "-204783087475", "-225411026949", "144326072373", "-237311096589", "113892008010", "-118910689617", "-67536751477", "210281081113", "-90318970028", "62649405262", "-25080310815", "-135201635359", "255271727234", "-100370382760", "-604569781", "160460225769", "-15304544870", "27713253888", "22850421780", "-141119742064", "-162795173869", "225824183775", "-57098360161", "-126629281264", "242510377863", "11569926134", "181906911256", "106336511245", "80649453775", "-127615875066", "-235169164884", "53933199607", "-215710576621", "74057469625", "149962901718", "-88497389806", "73234726680", "220929080378", "-256935589846", "-155433355918", "-121279164527", "89154625176", "-36968179401", "123043438229", "-45484322885", "-110886662401", "172374730840", "-26014218955", "-85849921265", "137905095951", "19359717451", "-79247415876", "-206362592952", "-9580254195", "211546214535", "-89503302125", "56135732395", "136942976605", "69460635504", "-169528764387", "179574352199", "-235622250535", "-141766373107", "-66312487302", "23982805111", "196042606175", "97742839653", "-146975886233", "156678409807", "75964958945", "82210249122", "-220667812240", "275803155900", "208598194298", "49746839056", "168766177182", "70639208630", "-167918527200", "-158806858599", "201470631382", "80109830259", "-30761277269", "122209439131", "-115804939388", "-48221868774", "127651594169", "-182289056163", "102133713528", "-163841312305", "-184441568445", "-260038238736", "-181588301226", "30375895408", "116409798584", "-219376640570", "171999756898", "161278330351", "9189215808", "-4621975874", "-226893738139", "-669624041", "76037406031", "-106646851501", "-79759286502", "-164267183855", "163375827831", "-3978728813", "217166065368", "5569839462", "-87996624221", "126844446620", "-186838457382", "152601874639", "214814325680", "59554024753", "154207212065", "147477950893", "-33754084511", "72974064276", "10247520497", "142854903746", "117738429889", "-49994341269", "117729805102", "-16801219902", "-126956076515", "-208800637014", "-17698460719", "28096305963", "29458160191", "9217565435", "233265306294", "130361183918", "288034263494", "223868445002", "-66549574489", "19986537679", "33810338935", "-143245177307", "10018301650", "-250293596273", "252761962301", "276954141372", "-5126415971", "-139631816508", "-203855451757", "173437304547", "78648523244", "117151245063", "-184964886536", "-55610260324", "-275211787210", "72463029698", "-205135523298", "-91980483740", "-131870194859", "-80549416162", "-19073704939", "133491303457", "-119242673774", "111617797509", "-86227851699", "-173679990067", "-158273348174", "266651800521", "-72566142400", "269219855347", "108047301078", "39122850433", "277092181618", "-64165819425", "178110989440", "146024950190", "54623102380", "-235439600853", "-105481271974", "25537937344", "-166054434632", "180808277101", "123422486910", "39212502336", "81515137831", "75152354032", "142067290394", "-137077638653", "-143923481682", "284265093718", "162062824359", "-179001272761", "-148299236178", "-33458386674", "250627565859", "226605124382", "250616313504", "-258788410156", "-161467059073", "-217332099133", "134912231747", "136429080799", "8866631046", "29278857331", "-42329874604", "-234370546907", "-184568390608", "160618305871", "104429961376", "-210764548012", "210243826715", "-185038657281", "-220753085935", "60378165197", "-188595063644", "93000080058", "-214655956220", "51974714063", "224740986019", "-63685073237", "9478870122", "-226665948920", "62004319434", "-76057017842", "235722677959", "-173407290939", "-22303468186", "278359056321", "-231910134482", "117280847934", "-116862212792", "-244622614387", "44300378814", "-179472511483", "-138995574534", "198959332251", "174941260873", "4106811849", "-140268205369", "-134266388359", "-133836984505", "-168464669108", "182328591340", "26272768964", "-250615890670", "-207158701861", "24551563039", "198934624500", "-3344962463", "-160097308530", "9563558604", "18717129786", "171828020177", "-33116665877", "262442539932", "241011156577", "-140959090651", "-207870691951", "247448628849", "-63635894711", "17219939942", "-54453146926", "209768974997", "-56384887691", "-65393086791", "79176499913", "-51843049178", "-159594002299", "-139148116314", "-1235738095", "-163086867881", "6546132053", "112246442813", "-54607797381", "-142822401509", "-128624259431", "-98405202229", "-106758934589", "-161019995538", "-121574167957", "-53236565383", "177204805994", "190695229457", "300691796504", "-65220667349", "108446087339", "148689243782", "96237500311", "43356216704", "-194164068706", "-146768882961", "281683052430", "292396054351", "-79929922076", "269436511363", "128060506346", "-131272644460", "-138174663562", "-33749508068", "-57655445752", "179839393209", "242518441512", "228189220376", "217244583424", "-209257983346", "-207854404881", "51884372838", "-11145801225", "156229515337", "132582458311", "162194493003", "-230041819095", "-100608071545", "-4699450880", "106466459781", "176310646327", "40897296129", "120516050826", "5089256868", "-78766286337", "163847055194", "97885580835", "-115377516409", "-478692735", "202636484272", "-46598344465", "178418497344", "-173366014872", "-124759762590", "-80717125810", "28972892968", "-12772642988", "-45173117424", "101837075509", "97208329871", "-130057425949", "202792898353", "111329085827", "-118037715316", "-45184222435", "176082074446", "-126126379151", "232896791196", "93657264899", "-172720777461", "98064223729", "40217270210", "-209552720765", "-209058780723", "42808463038", "33466770555", "171726303611", "242804380219", "-83430604618", "-147499469471", "95379534681", "-125253525668", "67296624940", "32631572486", "20336341580", "194878239221", "198291120392", "-285639437547", "88392086631", "17834476457", "66750697801", "-43488819949", "100406706778", "223642705600", "-13858031295", "193701990987", "20276231281", "-65070499546", "219495806933", "-115971825498", "6215859719", "-205345118689", "222949561539", "122622528436", "62288378885", "236676195267", "18255438988", "-11440495382", "-302483911222", "55269941211", "-79721739509", "1814664669", "58643149664", "208354007944", "-159156002469", "-11361438468", "12306538316", "-16556742496", "20937956450", "-38370941969", "-2240168391", "106823041006", "-150512897957", "131723861968", "-161319018923", "-178124090552", "-216602672581", "180490803002", "-222599356487", "92197920044", "66584458486", "-101208436876", "251210087928", "261660590881", "112281340355", "-258856547144", "134753792390", "8667171092", "-2682208852", "-223045417717", "47622810829", "-95205344334", "-38955517011", "-73610739433", "-7515616922", "-221922755752", "223293521634", "166017461309", "204256430610", "-48974127489", "-182750540827", "26474753721", "-122964500158", "204344120953", "-40818815463", "253833800545", "-112553240019", "-238933111499", "210792957795", "-11649494066", "54169787434", "-175370928690", "211949967787", "-128513582528", "-164040449192", "47817815937", "57747467054", "-72073713405", "-229269938994", "115361322099", "84654348196", "-212427345063", "176259946515", "193640154094", "179160916245", "-13287616066", "108248577197", "-35889731515", "-117194438717", "-35196111346", "-201239102431", "168131733060", "80841821601", "104740291583", "-42553120488", "127710517859", "123722467804", "207024062578", "-109225376626", "-245335841679", "-177329128426", "-200556310312", "182541842317", "-165341934443", "14695282077", "-230354469167", "-184921118208", "-302610414132", "55012647130", "-113905793994", "231814530605", "-37501135455", "219483737456", "-17086065802", "-91231965181", "-32442954699", "135976879599", "-122335220681", "-118002300836", "90958594256", "-24754577276", "-265260852624", "-150212053563", "-242062616876", "-198752365356", "347987772447", "-60735445292", "-37796256588", "163936829153", "133399537899", "-179693276399", "-5638512116", "-12115939355", "170301656609", "-108356815401", "129055831194", "154743568440", "62414799626", "-171405152704", "163793156959", "17206286926", "228007257702", "122053349044", "147561434143", "-97756926852", "-179728844239", "-196976458327", "-195913513471", "189166675845", "-123225822868", "128109964322", "-196462631320", "-231616619096", "15702226237", "28909091992", "131498403978", "17171021937", "-84852602020", "139436711850", "147591264858", "-86639157385", "166387770410", "256339179532", "-115910997977", "41311528584", "162773304822", "193147435284", "146843472307", "-148937258983", "-183686762080", "-81349863719", "11266411883", "-12865171653", "67902578981", "-183977725843", "209763672796", "-163822707231", "7498831141", "-158555148908", "-213523845612", "88125939060", "1414954970", "74146155597", "-256749483154", "165973057483", "30432990938", "-730860930", "-39236470579", "-181288359553", "154955451048", "-182905720333", "110092073347", "155550662638", "-30467080339", "101476543504", "-55537148315", "-143074787684", "-242322375571", "126010695333", "-153167318175", "-6847964585", "-1204504094", "145700805920", "97871147044", "200903777346", "-204239117194", "-112552493065", "204143939618", "253296426535", "-235829313387", "-18372020776", "95268365159", "-86217129843", "107096527893", "-61333884869", "91210730841", "284423487046", "-8058572221", "241004071161", "161607747790", "-226947086635", "-134817079403", "-12960804340", "-144527837117", "244672462391", "-161278806551", "197163598159", "258040046392", "-135404573058", "53783390633", "185245870667", "43052863636", "35819343013", "-5041108723", "9176346729", "177502272993", "77630864388", "-136723723503", "125206902842", "-180293737591", "47028377661", "-31352155116", "-10459461868", "-72048145766", "-174979307800", "-126488647924", "-203902138693", "70915428108", "259926687591", "-65931960501", "-25025891536", "-184252442259", "96091674741", "26714051618", "89339034499", "113008077636", "70073973097", "275339160003", "254202404161", "97856120465", "191912226668", "227712208480", "-112717412023", "-131861367716", "-173427812977", "-249150272434", "274180451755", "222463222427", "289965503755", "69436212437", "-91529725580", "88935481602", "-53312419128", "92958605877", "146855699004", "-213764086842", "185164298262", "272922173439", "-150316377097", "135538339700", "-112878604420", "163313536270", "-25795236534", "-134238561676", "-194623342053", "-62843890830", "-174099222164", "-131012646822", "-198137688792", "-50441251786", "-150103689658", "123291088272", "-17060232850", "-165840544153", "-15904329781", "91390592878", "-194812419755", "116172786307", "21063194149", "-21582269742", "66244351802", "51040806559", "66787164395", "177861213973", "140354761076", "-100310962452", "45070715061", "232369681604", "11548474129", "135825540284", "61990674098", "-206932568282", "245526168877", "-111414373673", "-140615091953", "-33914994493", "23617375983", "-147133874791", "196146510770", "77820355270", "459366143", "-112122513912", "105827655613", "186173438336", "202572792035", "75174663170", "54818469687", "-170362276525", "-143849217642", "-204441779826", "-88965884447", "165559527507", "-131520284481", "-142315187468", "124161481446", "11132640971", "70570017164", "-24391644221", "-3553507742", "-215727883053", "-100270803337", "-160457174872", "-44723981578", "63085524237", 